{"learner":{"attributes":{"best_iteration":"188","best_score":"0.9623466893176474","scikit_learn":"{\"_estimator_type\": \"classifier\"}"},"feature_names":["htoautd0","tre200d0","ure200d0","fkl010d0","fkl010d1","sre000d0","temp_mean_3d","temp_mean_7d","temp_delta_3d","temp_min_7d","temp_max_3d","precip_3d","precip_7d","precip_14d","snow_delta","snow_delta_3d","snow_depth_lag1","snow_depth_lag3","snow_depth_lag7","humidity_mean_3d","wind_mean_3d","gust_max_3d","sunshine_3d","days_since_snowfall","rain_48h","altitude","doy_sin","doy_cos","month"],"feature_types":["float","float","float","float","float","float","float","float","float","float","float","float","float","float","float","float","float","float","float","float","float","float","float","int","float","float","float","float","int"],"gradient_booster":{"model":{"cats":{"enc":[],"feature_segments":[],"sorted_idx":[]},"gbtree_model_param":{"num_parallel_tree":"1","num_trees":"219"},"iteration_indptr":[0,1,2,3,4,5,6,7,8,9,10,11,12,13,14,15,16,17,18,19,20,21,22,23,24,25,26,27,28,29,30,31,32,33,34,35,36,37,38,39,40,41,42,43,44,45,46,47,48,49,50,51,52,53,54,55,56,57,58,59,60,61,62,63,64,65,66,67,68,69,70,71,72,73,74,75,76,77,78,79,80,81,82,83,84,85,86,87,88,89,90,91,92,93,94,95,96,97,98,99,100,101,102,103,104,105,106,107,108,109,110,111,112,113,114,115,116,117,118,119,120,121,122,123,124,125,126,127,128,129,130,131,132,133,134,135,136,137,138,139,140,141,142,143,144,145,146,147,148,149,150,151,152,153,154,155,156,157,158,159,160,161,162,163,164,165,166,167,168,169,170,171,172,173,174,175,176,177,178,179,180,181,182,183,184,185,186,187,188,189,190,191,192,193,194,195,196,197,198,199,200,201,202,203,204,205,206,207,208,209,210,211,212,213,214,215,216,217,218,219],"tree_info":[0,0,0,0,0,0,0,0,0,0,0,0,0,0,0,0,0,0,0,0,0,0,0,0,0,0,0,0,0,0,0,0,0,0,0,0,0,0,0,0,0,0,0,0,0,0,0,0,0,0,0,0,0,0,0,0,0,0,0,0,0,0,0,0,0,0,0,0,0,0,0,0,0,0,0,0,0,0,0,0,0,0,0,0,0,0,0,0,0,0,0,0,0,0,0,0,0,0,0,0,0,0,0,0,0,0,0,0,0,0,0,0,0,0,0,0,0,0,0,0,0,0,0,0,0,0,0,0,0,0,0,0,0,0,0,0,0,0,0,0,0,0,0,0,0,0,0,0,0,0,0,0,0,0,0,0,0,0,0,0,0,0,0,0,0,0,0,0,0,0,0,0,0,0,0,0,0,0,0,0,0,0,0,0,0,0,0,0,0,0,0,0,0,0,0,0,0,0,0,0,0,0,0,0,0,0,0,0,0,0,0,0,0,0,0,0,0,0,0],"trees":[{"base_weights":[4.7461977E-3,-1.796682E0,1.4845582E0,-1.870051E0,-1.0639743E0,1.7192571E0,1.2294388E-1,-1.9609454E0,-1.5158122E0,-1.6121525E0,-2.9596943E-1,1.8581313E0,1.3152648E0,5.345133E-1,-6.284806E-1,-1.9651946E0,-1.0069772E0,-5.2074945E-1,-1.710889E0,-1.1424396E0,-1.7702198E0,9.458033E-2,-9.2740196E-1,8.954341E-1,1.8854097E0,4.487309E-1,1.372662E0,6.894219E-1,-3.871711E-1,-1.0725046E0,8.569844E-2,-1.9843622E0,-1.844576E0,5.5534697E-1,-1.6322442E0,-8.3684206E-1,4.7956717E-1,-1.8232095E0,-1.416554E0,-5.4986006E-1,-1.5837842E0,-1.8665348E0,-1.3808784E0,2.8507027E-1,-8.3778805E-1,-5.9665304E-1,-1.6543196E0,1.0836006E0,-4.747393E-2,-7.747422E-1,1.8877673E0,5.540329E-1,-1.3182908E0,1.4900191E0,1.1186875E0,3.229118E-1,9.7693515E-1,-1.1890702E0,-3.2510012E-2,-1.3372356E0,-3.5081118E-1,-3.112652E-1,6.335586E-1,-9.92412E-2,-3.0467171E-2,-9.778883E-2,-6.9639206E-2,6.1350524E-2,-2.0108733E-2,-9.16E-2,-5.7845595E-3,-6.444836E-2,-1.2676226E-2,5.8176424E-2,-2.7673005E-3,-9.202661E-2,-4.707208E-2,-5.543185E-2,-8.6782314E-2,3.3047788E-2,-3.9332803E-2,-8.243757E-2,2.3970664E-2,-9.42226E-2,2.3970664E-2,-4.6031334E-2,-8.2306415E-2,-5.086157E-3,2.606516E-2,-5.2179854E-2,4.5178805E-2,6.373081E-3,-5.6127496E-2,-0E0,-8.847071E-2,2.8775785E-2,7.7268615E-2,1.5207685E-2,-6.2432416E-2,2.3970664E-2,-6.769231E-2,7.454511E-2,9.515841E-2,3.921447E-2,-1.1000652E-2,-7.529412E-2,-1.425409E-2,4.244059E-2,7.556718E-2,-3.6583412E-3,5.8429092E-2,-4.4294655E-2,2.341652E-2,5.5081647E-2,1.0560098E-2,-2.1172557E-2,-8.411377E-2,2.578508E-2,-3.7723947E-2,-5.09723E-2,-8.102464E-2,-2.792053E-2,3.4887385E-2,-2.8805493E-3,-7.945549E-2,4.060861E-2,-3.84134E-2],"categories":[],"categories_nodes":[],"categories_segments":[],"categories_sizes":[],"default_left":[0,0,0,1,1,0,0,1,0,0,0,0,0,0,0,0,0,0,0,0,0,0,0,0,0,0,0,0,1,0,0,1,0,0,0,0,0,0,0,0,0,0,0,0,0,0,0,0,0,0,1,0,0,0,0,0,0,0,0,0,0,0,0,0,0,0,0,0,0,0,0,0,0,0,0,0,0,0,0,0,0,0,0,0,0,0,0,0,0,0,0,0,0,0,0,0,0,0,0,0,0,0,0,0,0,0,0,0,0,0,0,0,0,0,0,0,0,0,0,0,0,0,0,0,0,0,0],"id":0,"left_children":[1,3,5,7,9,11,13,15,17,19,21,23,25,27,29,31,33,35,37,39,41,43,45,47,49,51,53,55,57,59,61,63,65,67,69,71,73,75,77,79,81,83,85,87,89,91,93,95,97,99,101,103,105,107,109,111,113,115,117,119,121,123,125,-1,-1,-1,-1,-1,-1,-1,-1,-1,-1,-1,-1,-1,-1,-1,-1,-1,-1,-1,-1,-1,-1,-1,-1,-1,-1,-1,-1,-1,-1,-1,-1,-1,-1,-1,-1,-1,-1,-1,-1,-1,-1,-1,-1,-1,-1,-1,-1,-1,-1,-1,-1,-1,-1,-1,-1,-1,-1,-1,-1,-1,-1,-1,-1],"loss_changes":[3.2161688E4,2.9021875E2,2.1163164E3,1.558789E2,2.0885999E2,3.1420703E2,3.0185342E2,1.3658203E1,1.9576514E2,1.9225464E1,5.160876E1,1.08375E2,7.1264404E1,9.032872E1,1.0972406E2,5.0039062E0,2.0148855E1,5.3483932E1,2.511084E1,1.8798393E1,5.163208E0,2.3216091E1,1.7998032E1,2.1052704E1,2.719336E1,1.769851E1,3.8556885E1,5.6489014E1,2.5799316E1,4.0085083E1,2.921091E1,6.6503906E-1,2.4643433E1,4.6271048E0,3.9219017E0,3.325666E1,1.5118263E1,7.3016357E0,2.1255219E1,1.0303892E1,6.663513E0,8.163269E0,3.929535E0,1.0010597E1,8.900707E0,2.1786062E1,4.7689133E0,2.1966179E1,9.117631E0,3.8513107E0,2.1771484E1,1.5771996E1,4.3714237E-1,1.1138916E1,2.5977295E1,4.2414116E1,2.8485199E1,9.603432E0,2.5903189E1,1.2080444E1,1.3144947E1,2.497286E1,1.4756083E1,0E0,0E0,0E0,0E0,0E0,0E0,0E0,0E0,0E0,0E0,0E0,0E0,0E0,0E0,0E0,0E0,0E0,0E0,0E0,0E0,0E0,0E0,0E0,0E0,0E0,0E0,0E0,0E0,0E0,0E0,0E0,0E0,0E0,0E0,0E0,0E0,0E0,0E0,0E0,0E0,0E0,0E0,0E0,0E0,0E0,0E0,0E0,0E0,0E0,0E0,0E0,0E0,0E0,0E0,0E0,0E0,0E0,0E0,0E0,0E0,0E0,0E0,0E0,0E0],"parents":[2147483647,0,0,1,1,2,2,3,3,4,4,5,5,6,6,7,7,8,8,9,9,10,10,11,11,12,12,13,13,14,14,15,15,16,16,17,17,18,18,19,19,20,20,21,21,22,22,23,23,24,24,25,25,26,26,27,27,28,28,29,29,30,30,31,31,32,32,33,33,34,34,35,35,36,36,37,37,38,38,39,39,40,40,41,41,42,42,43,43,44,44,45,45,46,46,47,47,48,48,49,49,50,50,51,51,52,52,53,53,54,54,55,55,56,56,57,57,58,58,59,59,60,60,61,61,62,62],"right_children":[2,4,6,8,10,12,14,16,18,20,22,24,26,28,30,32,34,36,38,40,42,44,46,48,50,52,54,56,58,60,62,64,66,68,70,72,74,76,78,80,82,84,86,88,90,92,94,96,98,100,102,104,106,108,110,112,114,116,118,120,122,124,126,-1,-1,-1,-1,-1,-1,-1,-1,-1,-1,-1,-1,-1,-1,-1,-1,-1,-1,-1,-1,-1,-1,-1,-1,-1,-1,-1,-1,-1,-1,-1,-1,-1,-1,-1,-1,-1,-1,-1,-1,-1,-1,-1,-1,-1,-1,-1,-1,-1,-1,-1,-1,-1,-1,-1,-1,-1,-1,-1,-1,-1,-1,-1,-1],"split_conditions":[2E1,1.5E1,3.3E0,8E0,3.1E0,7E-1,3.5666666E0,2.6E1,-5.9211896E-16,6.4E1,1.5E1,2.2E1,2.3E1,5.54E2,4.520722E-1,8E0,-5E-1,2.25E1,2E0,-2.2E0,1.9E1,1.7666667E0,1.1E1,-1E-1,-4.5973274E-1,5.11E2,2.3E0,5.3E1,8.9E0,1.39E1,1.34E1,3.2E2,2.8E0,1.1E1,9E0,6E0,2.6333334E0,1.974E3,2E0,-6.5E0,9.81E1,2.98E1,2.88E2,9.5E0,1.8E1,9E-1,9.5E0,1.5E1,9.821256E-1,7.24E1,2.2E1,8.68E1,1.35E1,3E0,1.2E1,-6E0,4E-1,4E-1,4.4E0,6.1E0,1.53E1,5.5E2,5.33E1,-9.92412E-2,-3.0467171E-2,-9.778883E-2,-6.9639206E-2,6.1350524E-2,-2.0108733E-2,-9.16E-2,-5.7845595E-3,-6.444836E-2,-1.2676226E-2,5.8176424E-2,-2.7673005E-3,-9.202661E-2,-4.707208E-2,-5.543185E-2,-8.6782314E-2,3.3047788E-2,-3.9332803E-2,-8.243757E-2,2.3970664E-2,-9.42226E-2,2.3970664E-2,-4.6031334E-2,-8.2306415E-2,-5.086157E-3,2.606516E-2,-5.2179854E-2,4.5178805E-2,6.373081E-3,-5.6127496E-2,-0E0,-8.847071E-2,2.8775785E-2,7.7268615E-2,1.5207685E-2,-6.2432416E-2,2.3970664E-2,-6.769231E-2,7.454511E-2,9.515841E-2,3.921447E-2,-1.1000652E-2,-7.529412E-2,-1.425409E-2,4.244059E-2,7.556718E-2,-3.6583412E-3,5.8429092E-2,-4.4294655E-2,2.341652E-2,5.5081647E-2,1.0560098E-2,-2.1172557E-2,-8.411377E-2,2.578508E-2,-3.7723947E-2,-5.09723E-2,-8.102464E-2,-2.792053E-2,3.4887385E-2,-2.8805493E-3,-7.945549E-2,4.060861E-2,-3.84134E-2],"split_indices":[0,0,10,24,24,10,6,16,6,5,5,0,0,5,27,0,10,24,0,7,0,6,15,10,27,5,10,18,4,4,4,18,24,0,15,16,20,25,5,10,2,21,5,24,23,10,12,18,27,2,16,19,4,18,18,14,9,12,10,10,11,5,12,0,0,0,0,0,0,0,0,0,0,0,0,0,0,0,0,0,0,0,0,0,0,0,0,0,0,0,0,0,0,0,0,0,0,0,0,0,0,0,0,0,0,0,0,0,0,0,0,0,0,0,0,0,0,0,0,0,0,0,0,0,0,0,0],"split_type":[0,0,0,0,0,0,0,0,0,0,0,0,0,0,0,0,0,0,0,0,0,0,0,0,0,0,0,0,0,0,0,0,0,0,0,0,0,0,0,0,0,0,0,0,0,0,0,0,0,0,0,0,0,0,0,0,0,0,0,0,0,0,0,0,0,0,0,0,0,0,0,0,0,0,0,0,0,0,0,0,0,0,0,0,0,0,0,0,0,0,0,0,0,0,0,0,0,0,0,0,0,0,0,0,0,0,0,0,0,0,0,0,0,0,0,0,0,0,0,0,0,0,0,0,0,0,0],"sum_hessian":[1.2062679E4,5.4400405E3,6.6226377E3,4.9433535E3,4.9668695E2,5.648654E3,9.739842E2,3.930107E3,1.01324646E3,2.8910403E2,2.0758292E2,4.2007725E3,1.4478812E3,6.295755E2,3.4440866E2,3.9115193E3,1.8587776E1,1.6676756E2,8.464789E2,7.5023735E1,2.140803E2,1.2868272E2,7.89002E1,1.1678383E2,4.0839888E3,9.060242E1,1.3572788E3,5.392959E2,9.027959E1,2.1214857E2,1.3226009E2,3.361119E3,5.504002E2,5.2990904E0,1.3288687E1,1.26923935E2,3.984363E1,6.08671E2,2.3780788E2,3.30803E1,4.1943436E1,1.6837646E2,4.570384E1,1.0751756E2,2.116515E1,5.5572826E1,2.3327374E1,9.731959E1,1.9464241E1,3.2886868E0,4.0807E3,8.620807E1,4.3943434E0,9.247209E2,4.3255792E2,2.3816452E2,3.0113138E2,2.6876465E1,6.3403126E1,1.5448798E2,5.7660603E1,7.683616E1,5.5423935E1,3.3594746E3,1.6443434E0,4.3883777E2,1.1156242E2,3.0104036E0,2.2886868E0,1.15E1,1.7886868E0,7.072465E1,5.6199287E1,1.7052017E1,2.2791615E1,5.9576624E2,1.2904747E1,1.23459694E2,1.1434818E2,5.0490904E0,2.8031212E1,4.0904747E1,1.0386868E0,1.6733778E2,1.0386868E0,1.848212E1,2.7221718E1,4.0822826E1,6.669474E1,1.9337776E1,1.8273735E0,2.3618988E1,3.1953838E1,1.5386868E0,2.1788687E1,4.750878E1,4.9810802E1,1.5569898E1,3.8943434E0,1.0386868E0,2.25E0,1.5633716E2,3.9243628E3,6.653252E1,1.9675554E1,3.25E0,1.1443434E0,3.1227573E1,8.9349335E2,1.7281212E1,4.1527673E2,2.4953838E1,2.132107E2,2.5847076E2,4.2660603E1,1.1337777E1,1.5538687E1,3.6121918E1,2.7281212E1,7.513979E1,7.934818E1,4.860111E1,9.059494E0,6.504747E1,1.1788687E1,4.959656E1,5.8273735E0],"tree_param":{"num_deleted":"0","num_feature":"29","num_nodes":"127","size_leaf_vector":"1"}},{"base_weights":[5.498596E-3,-1.708413E0,1.4100934E0,-1.7929465E0,-1.1350871E0,1.6663393E0,-2.8155166E-1,-1.8489113E0,-1.309871E0,-1.6575933E0,-4.8353228E-1,1.7723503E0,1.1768059E0,2.9747206E-1,-9.781293E-1,-1.8890457E0,-1.7106645E0,-2.0008692E-1,-1.7441908E0,-1.7418791E0,-1.1542134E0,-1.2749475E-1,-1.5461365E0,1.0177908E0,1.808524E0,2.8033447E-1,1.2678967E0,6.2010324E-1,-7.0491426E-2,-6.711644E-1,-1.5091467E0,-1.0830092E0,-1.8926636E0,-1.7897404E0,-1.0197278E0,1.2952863E-1,-9.4350445E-1,-1.77021E0,-8.217374E-1,-1.7505667E0,1.1466572E-2,-0E0,-1.3155167E0,2.5713605E-1,-9.347841E-1,-1.6286274E0,-5.3656563E-2,1.7801793E-1,1.2713737E0,1.8620013E0,1.6731186E0,-5.177709E-1,5.932151E-1,1.4159193E0,9.149271E-1,2.9248875E-1,9.5803136E-1,1.2261655E-1,-7.3080534E-1,-1.0178046E0,-2.9744646E-1,-1.7058161E0,-1.111185E0,1.662876E-2,-7.6389305E-2,-9.4657056E-2,-2.0363754E-2,-5.0658215E-2,-9.083332E-2,-1.3278601E-2,-7.646444E-2,-1.823566E-2,2.8748695E-2,-5.659159E-2,4.563951E-2,-5.2303143E-2,-9.007978E-2,5.3297963E-2,-5.7165112E-2,-9.157562E-2,-7.561636E-2,-2.8613687E-2,5.2684832E-2,-4.4278216E-2,-8.6316206E-2,-9.842517E-3,2.989058E-2,-1.2820383E-2,-7.020701E-2,-5.565188E-2,-9.0053044E-2,-5.620862E-2,3.263442E-2,3.845937E-2,-3.280313E-2,4.2719435E-2,7.24439E-2,7.7767804E-2,9.364776E-2,5.2093357E-2,8.491909E-2,-7.285989E-2,-1.0270957E-2,-1.46811E-2,4.104854E-2,7.861129E-2,6.008194E-2,5.1276326E-2,1.7086277E-2,3.3772912E-2,-1.4550607E-2,6.068147E-2,2.6554076E-2,-5.0089963E-2,1.115745E-2,-7.955436E-2,-2.2190133E-2,5.2101117E-2,-5.396368E-2,1.6738896E-3,-5.2114803E-2,-1.2103888E-2,-8.600121E-2,-5.8839917E-2,2.3456914E-2],"categories":[],"categories_nodes":[],"categories_segments":[],"categories_sizes":[],"default_left":[0,0,0,1,1,0,0,1,0,0,0,0,0,0,0,0,0,0,0,0,0,0,0,0,0,0,0,0,0,0,0,0,1,0,0,0,0,0,0,0,0,0,0,0,0,0,0,0,0,1,0,0,0,0,0,0,0,0,0,0,0,0,0,0,0,0,0,0,0,0,0,0,0,0,0,0,0,0,0,0,0,0,0,0,0,0,0,0,0,0,0,0,0,0,0,0,0,0,0,0,0,0,0,0,0,0,0,0,0,0,0,0,0,0,0,0,0,0,0,0,0,0,0,0,0],"id":1,"left_children":[1,3,5,7,9,11,13,15,17,19,21,23,25,27,29,31,33,35,37,39,41,43,45,47,49,51,53,55,57,59,61,63,65,67,69,71,73,75,77,79,-1,81,83,85,87,89,91,93,95,97,99,101,103,105,107,109,111,113,115,117,119,121,123,-1,-1,-1,-1,-1,-1,-1,-1,-1,-1,-1,-1,-1,-1,-1,-1,-1,-1,-1,-1,-1,-1,-1,-1,-1,-1,-1,-1,-1,-1,-1,-1,-1,-1,-1,-1,-1,-1,-1,-1,-1,-1,-1,-1,-1,-1,-1,-1,-1,-1,-1,-1,-1,-1,-1,-1,-1,-1,-1,-1,-1,-1],"loss_changes":[2.9098611E4,2.6152637E2,2.8802812E3,1.25484375E2,2.3812628E2,2.9703125E2,3.5316382E2,1.997754E1,2.3854095E2,1.4218506E1,1.1847378E2,1.2726465E2,8.361243E1,5.688707E1,6.354117E1,7.2226562E0,5.0719482E1,3.468451E1,6.8380127E0,6.2280884E0,1.0871407E1,7.37253E1,9.430313E0,4.632257E1,2.927539E1,2.4387962E1,4.730945E1,2.78395E1,2.874236E1,3.2434753E1,9.143402E0,1.1410454E1,1.3164062E0,1.5987061E1,3.851391E1,2.186685E1,1.6240799E1,5.6845703E0,8.356697E0,3.2609863E0,0E0,5.5645227E0,7.338211E0,2.5034056E1,2.386306E1,4.323395E0,4.7266183E0,2.621027E1,1.0978363E1,7.6015625E0,1.8539795E1,7.631273E0,1.4394274E1,1.9823242E1,1.7213211E1,2.953733E1,1.2821419E1,1.9840824E1,1.1682043E1,1.7725082E1,3.061306E1,1.3582153E0,5.898155E0,0E0,0E0,0E0,0E0,0E0,0E0,0E0,0E0,0E0,0E0,0E0,0E0,0E0,0E0,0E0,0E0,0E0,0E0,0E0,0E0,0E0,0E0,0E0,0E0,0E0,0E0,0E0,0E0,0E0,0E0,0E0,0E0,0E0,0E0,0E0,0E0,0E0,0E0,0E0,0E0,0E0,0E0,0E0,0E0,0E0,0E0,0E0,0E0,0E0,0E0,0E0,0E0,0E0,0E0,0E0,0E0,0E0,0E0,0E0,0E0,0E0,0E0],"parents":[2147483647,0,0,1,1,2,2,3,3,4,4,5,5,6,6,7,7,8,8,9,9,10,10,11,11,12,12,13,13,14,14,15,15,16,16,17,17,18,18,19,19,20,20,21,21,22,22,23,23,24,24,25,25,26,26,27,27,28,28,29,29,30,30,31,31,32,32,33,33,34,34,35,35,36,36,37,37,38,38,39,39,41,41,42,42,43,43,44,44,45,45,46,46,47,47,48,48,49,49,50,50,51,51,52,52,53,53,54,54,55,55,56,56,57,57,58,58,59,59,60,60,61,61,62,62],"right_children":[2,4,6,8,10,12,14,16,18,20,22,24,26,28,30,32,34,36,38,40,42,44,46,48,50,52,54,56,58,60,62,64,66,68,70,72,74,76,78,80,-1,82,84,86,88,90,92,94,96,98,100,102,104,106,108,110,112,114,116,118,120,122,124,-1,-1,-1,-1,-1,-1,-1,-1,-1,-1,-1,-1,-1,-1,-1,-1,-1,-1,-1,-1,-1,-1,-1,-1,-1,-1,-1,-1,-1,-1,-1,-1,-1,-1,-1,-1,-1,-1,-1,-1,-1,-1,-1,-1,-1,-1,-1,-1,-1,-1,-1,-1,-1,-1,-1,-1,-1,-1,-1,-1,-1,-1],"split_conditions":[2E1,1.3E1,2.2E0,1.61E1,2.3E0,0E0,4E0,3.6E0,6E-1,1.9E1,1E0,2.3E1,2.4E1,6.98E1,5.8E0,-1.7E1,1E1,1E0,1.709E3,1.9E1,-6.9E0,3.6E1,1.974E3,1.3E1,-2.3E0,2.1E1,5.7E0,3.2333333E0,1E-1,1.18E1,1.29E1,-2.9E0,3.2E2,-4.8E0,1E-1,2.51E1,2.6666666E2,6.4333336E1,2.14E1,4E-1,1.1466572E-2,-1.9E0,1.7666667E0,9.5E0,2E0,7.33E1,1E1,5.2E1,2.1E1,2.1E1,8E0,-7E-1,2.1E1,1.2E0,1.7E0,3.2E0,5.6166668E1,2.4E1,1.3E0,2.72E1,6.91E1,-2.8E0,1.423E2,1.662876E-2,-7.6389305E-2,-9.4657056E-2,-2.0363754E-2,-5.0658215E-2,-9.083332E-2,-1.3278601E-2,-7.646444E-2,-1.823566E-2,2.8748695E-2,-5.659159E-2,4.563951E-2,-5.2303143E-2,-9.007978E-2,5.3297963E-2,-5.7165112E-2,-9.157562E-2,-7.561636E-2,-2.8613687E-2,5.2684832E-2,-4.4278216E-2,-8.6316206E-2,-9.842517E-3,2.989058E-2,-1.2820383E-2,-7.020701E-2,-5.565188E-2,-9.0053044E-2,-5.620862E-2,3.263442E-2,3.845937E-2,-3.280313E-2,4.2719435E-2,7.24439E-2,7.7767804E-2,9.364776E-2,5.2093357E-2,8.491909E-2,-7.285989E-2,-1.0270957E-2,-1.46811E-2,4.104854E-2,7.861129E-2,6.008194E-2,5.1276326E-2,1.7086277E-2,3.3772912E-2,-1.4550607E-2,6.068147E-2,2.6554076E-2,-5.0089963E-2,1.115745E-2,-7.955436E-2,-2.2190133E-2,5.2101117E-2,-5.396368E-2,1.6738896E-3,-5.2114803E-2,-1.2103888E-2,-8.600121E-2,-5.8839917E-2,2.3456914E-2],"split_indices":[0,0,1,24,24,1,1,24,1,0,1,0,0,19,1,14,16,5,25,15,1,5,25,17,1,17,24,20,9,4,4,1,17,1,1,24,22,19,13,24,0,8,20,24,15,19,24,5,0,16,17,8,0,1,1,1,19,0,20,19,2,8,13,0,0,0,0,0,0,0,0,0,0,0,0,0,0,0,0,0,0,0,0,0,0,0,0,0,0,0,0,0,0,0,0,0,0,0,0,0,0,0,0,0,0,0,0,0,0,0,0,0,0,0,0,0,0,0,0,0,0,0,0,0,0],"split_type":[0,0,0,0,0,0,0,0,0,0,0,0,0,0,0,0,0,0,0,0,0,0,0,0,0,0,0,0,0,0,0,0,0,0,0,0,0,0,0,0,0,0,0,0,0,0,0,0,0,0,0,0,0,0,0,0,0,0,0,0,0,0,0,0,0,0,0,0,0,0,0,0,0,0,0,0,0,0,0,0,0,0,0,0,0,0,0,0,0,0,0,0,0,0,0,0,0,0,0,0,0,0,0,0,0,0,0,0,0,0,0,0,0,0,0,0,0,0,0,0,0,0,0,0,0],"sum_hessian":[1.2085408E4,5.443214E3,6.642194E3,4.741767E3,7.0144696E2,5.7684746E3,8.73719E2,4.2467427E3,4.9502438E2,3.8833176E2,3.131152E2,4.739324E3,1.0291505E3,4.773531E2,3.963659E2,3.2808818E3,9.658609E2,1.3971426E2,3.5531012E2,3.3035764E2,5.7974106E1,2.3544185E2,7.767335E1,2.1826904E2,4.521055E3,9.540424E1,9.337462E2,2.5412354E2,2.2322954E2,2.5272536E2,1.4364056E2,1.6125952E1,3.2647559E3,8.6511566E2,1.0074529E2,9.727559E1,4.243868E1,3.4456375E2,1.0746381E1,3.2907E2,1.287629E0,7.2937517E0,5.068035E1,1.5984279E2,7.559905E1,7.3455185E1,4.2181687E0,5.110954E1,1.671595E2,3.231363E3,1.2896923E3,2.6593721E1,6.8810524E1,6.555413E2,2.782049E2,1.3012827E2,1.2399528E2,1.7323117E2,4.999837E1,1.3007964E2,1.2264573E2,9.3765E1,4.987556E1,3.8619668E0,1.2263986E1,3.2633647E3,1.3909514E0,3.0409586E1,8.3470605E2,4.1315426E1,5.942987E1,4.60916E1,5.1183987E1,3.8932945E1,3.505734E0,1.5871961E1,3.286918E2,1.1819623E0,9.564419E0,2.4031247E2,8.875754E1,5.0733747E0,2.2203765E0,2.6423994E1,2.425636E1,6.858056E1,9.126224E1,3.1635103E1,4.3963947E1,2.0423157E1,5.3032024E1,1.4979532E0,2.7202156E0,3.0025864E1,2.1083675E1,5.181492E1,1.1534458E2,1.166947E2,3.1146682E3,5.1406063E1,1.2382863E3,5.6413717E0,2.0952349E1,1.3911918E1,5.4898605E1,3.7511237E2,2.8042896E2,2.3239975E2,4.5805157E1,7.85725E1,5.155576E1,7.626291E1,4.7732372E1,1.3399819E1,1.5983134E2,1.1283674E1,3.87147E1,3.25995E0,1.2681968E2,8.548636E1,3.7159367E1,1.1424673E0,9.2622536E1,4.819325E1,1.6823107E0],"tree_param":{"num_deleted":"0","num_feature":"29","num_nodes":"125","size_leaf_vector":"1"}},{"base_weights":[-8.6655654E-4,-1.6375539E0,1.3441098E0,-1.7213717E0,-1.0693183E0,1.5665959E0,1.418787E-1,-1.771225E0,-1.2757442E0,-1.4789106E0,-2.4350666E-1,1.7206917E0,1.2751836E0,8.5739386E-1,-3.8026598E-1,-1.8103511E0,-1.6348964E0,-1.9026916E-2,-1.4462981E0,-1.6820016E0,-1.1627687E0,3.181855E-1,-6.0888946E-1,1.1529542E0,1.7433708E0,1.2216376E-1,1.3252643E0,1.2455113E0,-5.922081E-4,-3.1040154E-2,-1.0318708E0,-1.8138098E0,-9.05138E-1,-1.1385822E0,-1.7288959E0,5.0258285E-1,-3.9495137E-1,-1.1411159E0,-1.6428597E0,-3.6071151E-1,-1.6965659E0,-8.926796E-1,-1.5516665E0,-1.0795717E-1,7.706204E-1,-1.2190107E-1,-1.068585E0,-2.4711594E-1,1.2197195E0,-4.3112148E-2,1.7452484E0,-8.5128886E-1,2.9856718E-1,1.5422171E0,1.1771393E0,4.233931E-1,1.3299894E0,-8.538398E-1,3.9243126E-1,-5.1866853E-1,1.9234693E-1,-4.4880584E-1,-1.3718995E0,-9.07128E-2,-2.682564E-2,3.850749E-2,-6.590288E-2,-6.654957E-2,-2.1937454E-2,-8.808794E-2,-6.71088E-2,-2.7027532E-2,5.443983E-2,-3.388544E-2,4.1665085E-2,-3.1414386E-2,-7.143211E-2,-8.345296E-2,-1.5727503E-2,2.6122436E-2,-5.6476574E-2,-5.3936806E-2,-8.647568E-2,-6.513855E-2,-8.862851E-3,-1.5867274E-3,-8.030706E-2,-3.3623878E-2,4.8397478E-2,5.54319E-2,-5.034559E-3,1.6396305E-2,-6.795785E-2,-2.2926437E-2,-6.6372E-2,-6.440013E-2,1.4940969E-2,6.252027E-2,-5.6189205E-2,8.947214E-2,8.376404E-2,1.4008845E-2,-6.3897215E-2,3.657165E-2,-9.977838E-3,7.959045E-2,4.3758668E-2,6.9719754E-2,4.734185E-2,-2.232222E-2,4.254931E-2,7.628409E-2,4.2659383E-2,-3.029876E-2,-7.988206E-2,-5.29929E-2,3.0062575E-2,-5.20884E-2,-7.894739E-3,-1.282063E-2,2.559199E-2,-5.2184742E-2,-8.3183935E-3,-7.505188E-2,-4.2964887E-2],"categories":[],"categories_nodes":[],"categories_segments":[],"categories_sizes":[],"default_left":[0,0,0,1,1,0,1,1,0,1,0,0,0,0,0,1,0,0,0,1,0,0,0,0,0,0,0,0,0,0,0,1,0,0,0,0,0,0,0,0,0,0,0,0,0,0,0,0,0,0,0,0,0,0,0,0,0,0,0,0,0,0,0,0,0,0,0,0,0,0,0,0,0,0,0,0,0,0,0,0,0,0,0,0,0,0,0,0,0,0,0,0,0,0,0,0,0,0,0,0,0,0,0,0,0,0,0,0,0,0,0,0,0,0,0,0,0,0,0,0,0,0,0,0,0],"id":2,"left_children":[1,3,5,7,9,11,13,15,17,19,21,23,25,27,29,31,33,35,37,39,41,43,45,47,49,51,53,55,57,59,61,63,65,67,69,71,73,75,77,79,81,83,85,87,89,91,93,95,97,-1,99,101,103,105,107,109,111,113,115,117,119,121,123,-1,-1,-1,-1,-1,-1,-1,-1,-1,-1,-1,-1,-1,-1,-1,-1,-1,-1,-1,-1,-1,-1,-1,-1,-1,-1,-1,-1,-1,-1,-1,-1,-1,-1,-1,-1,-1,-1,-1,-1,-1,-1,-1,-1,-1,-1,-1,-1,-1,-1,-1,-1,-1,-1,-1,-1,-1,-1,-1,-1,-1,-1],"loss_changes":[2.6388502E4,2.5542676E2,1.7596758E3,1.0208594E2,2.3552606E2,2.468418E2,3.8471494E2,1.9280273E1,1.0222272E2,2.7694275E1,4.7972233E1,4.442285E1,1.1082837E2,1.447785E2,1.353376E2,8.354492E0,4.2299805E1,1.1594256E1,2.3075378E1,4.5981445E0,1.7885437E1,1.7934635E1,3.1408562E1,1.372023E1,1.865625E1,1.4159639E1,5.718164E1,2.0039795E1,4.606145E1,4.2477917E1,4.036226E1,6.533203E-1,1.1162765E1,2.0133743E1,7.5029297E0,1.5743168E1,1.2523301E1,2.370285E1,8.092834E0,3.647406E0,3.5129395E0,3.252468E1,5.965378E0,2.9937069E1,1.3459681E1,3.945342E1,1.0663406E1,4.6036906E0,1.1216843E1,0E0,7.4316406E0,6.5621967E0,1.5218048E1,2.2998291E1,5.350891E1,1.1375818E1,2.372052E1,6.804117E0,2.9057655E1,2.2842487E1,3.846601E1,1.28223505E1,7.1153564E0,0E0,0E0,0E0,0E0,0E0,0E0,0E0,0E0,0E0,0E0,0E0,0E0,0E0,0E0,0E0,0E0,0E0,0E0,0E0,0E0,0E0,0E0,0E0,0E0,0E0,0E0,0E0,0E0,0E0,0E0,0E0,0E0,0E0,0E0,0E0,0E0,0E0,0E0,0E0,0E0,0E0,0E0,0E0,0E0,0E0,0E0,0E0,0E0,0E0,0E0,0E0,0E0,0E0,0E0,0E0,0E0,0E0,0E0,0E0,0E0,0E0,0E0],"parents":[2147483647,0,0,1,1,2,2,3,3,4,4,5,5,6,6,7,7,8,8,9,9,10,10,11,11,12,12,13,13,14,14,15,15,16,16,17,17,18,18,19,19,20,20,21,21,22,22,23,23,24,24,25,25,26,26,27,27,28,28,29,29,30,30,31,31,32,32,33,33,34,34,35,35,36,36,37,37,38,38,39,39,40,40,41,41,42,42,43,43,44,44,45,45,46,46,47,47,48,48,50,50,51,51,52,52,53,53,54,54,55,55,56,56,57,57,58,58,59,59,60,60,61,61,62,62],"right_children":[2,4,6,8,10,12,14,16,18,20,22,24,26,28,30,32,34,36,38,40,42,44,46,48,50,52,54,56,58,60,62,64,66,68,70,72,74,76,78,80,82,84,86,88,90,92,94,96,98,-1,100,102,104,106,108,110,112,114,116,118,120,122,124,-1,-1,-1,-1,-1,-1,-1,-1,-1,-1,-1,-1,-1,-1,-1,-1,-1,-1,-1,-1,-1,-1,-1,-1,-1,-1,-1,-1,-1,-1,-1,-1,-1,-1,-1,-1,-1,-1,-1,-1,-1,-1,-1,-1,-1,-1,-1,-1,-1,-1,-1,-1,-1,-1,-1,-1,-1,-1,-1,-1,-1,-1],"split_conditions":[2E1,1.3E1,3.2E0,1.61E1,5.2E0,-1E-1,3E-1,3.6E0,3.3333335E-2,4E-1,6E-1,2.3E1,2.2E1,1E-1,5.3E0,2.8E1,-7E-1,2.6333334E0,3.4E0,-1.06E1,-1.2333333E0,1.5E1,-1.1E0,-6.354323E-1,-4.5973274E-1,-3E0,-3E-1,2.4E1,-4.7321387E-2,2.4284972E-1,8.311706E-1,3.2E2,-3.1E0,1E1,8E0,2.27E1,9.6230906E-1,-3E0,1.709E3,7.4433334E1,-6.8E0,1.7E1,7E-1,1.54E1,2.11E1,7.1E1,1.8E0,3.42E1,5.75E2,-4.3112148E-2,-2.3E0,-7.6E0,2E-1,1.4333333E0,1.4E0,2.2333333E0,2.8E0,-9E0,2E0,2.1333334E0,4.1E1,3.74E1,1E-1,-9.07128E-2,-2.682564E-2,3.850749E-2,-6.590288E-2,-6.654957E-2,-2.1937454E-2,-8.808794E-2,-6.71088E-2,-2.7027532E-2,5.443983E-2,-3.388544E-2,4.1665085E-2,-3.1414386E-2,-7.143211E-2,-8.345296E-2,-1.5727503E-2,2.6122436E-2,-5.6476574E-2,-5.3936806E-2,-8.647568E-2,-6.513855E-2,-8.862851E-3,-1.5867274E-3,-8.030706E-2,-3.3623878E-2,4.8397478E-2,5.54319E-2,-5.034559E-3,1.6396305E-2,-6.795785E-2,-2.2926437E-2,-6.6372E-2,-6.440013E-2,1.4940969E-2,6.252027E-2,-5.6189205E-2,8.947214E-2,8.376404E-2,1.4008845E-2,-6.3897215E-2,3.657165E-2,-9.977838E-3,7.959045E-2,4.3758668E-2,6.9719754E-2,4.734185E-2,-2.232222E-2,4.254931E-2,7.628409E-2,4.2659383E-2,-3.029876E-2,-7.988206E-2,-5.29929E-2,3.0062575E-2,-5.20884E-2,-7.894739E-3,-1.282063E-2,2.559199E-2,-5.2184742E-2,-8.3183935E-3,-7.505188E-2,-4.2964887E-2],"split_indices":[0,0,10,24,24,10,8,24,6,24,10,0,0,9,10,16,6,20,6,8,6,16,8,26,27,14,8,0,27,27,26,17,10,16,0,11,27,8,25,19,10,16,12,24,21,5,10,12,5,0,10,9,8,6,10,20,6,15,23,20,0,2,24,0,0,0,0,0,0,0,0,0,0,0,0,0,0,0,0,0,0,0,0,0,0,0,0,0,0,0,0,0,0,0,0,0,0,0,0,0,0,0,0,0,0,0,0,0,0,0,0,0,0,0,0,0,0,0,0,0,0,0,0,0,0],"split_type":[0,0,0,0,0,0,0,0,0,0,0,0,0,0,0,0,0,0,0,0,0,0,0,0,0,0,0,0,0,0,0,0,0,0,0,0,0,0,0,0,0,0,0,0,0,0,0,0,0,0,0,0,0,0,0,0,0,0,0,0,0,0,0,0,0,0,0,0,0,0,0,0,0,0,0,0,0,0,0,0,0,0,0,0,0,0,0,0,0,0,0,0,0,0,0,0,0,0,0,0,0,0,0,0,0,0,0,0,0,0,0,0,0,0,0,0,0,0,0,0,0,0,0,0,0],"sum_hessian":[1.19856455E4,5.40645E3,6.579195E3,4.7095605E3,6.9688947E2,5.551451E3,1.0277439E3,4.2328257E3,4.7673508E2,4.652295E2,2.3165999E2,3.62784E3,1.9236112E3,4.3339514E2,5.9434875E2,3.2788018E3,9.540237E2,5.7171066E1,4.1956403E2,2.8043802E2,1.8479147E2,9.124588E1,1.4041411E2,1.4151282E2,3.4863271E3,8.02993E1,1.8433119E3,2.9817706E2,1.352181E2,3.877411E2,2.0660765E2,3.2652117E3,1.3590156E1,1.5417297E2,7.998507E2,2.3693071E1,3.3477993E1,1.6723251E2,2.523315E2,3.4132757E0,2.7702475E2,1.11150276E2,7.364119E1,4.726651E1,4.3979366E1,6.890298E1,7.151113E1,6.2500544E0,1.3526276E2,2.1423023E0,3.4841848E3,1.1645097E1,6.8654205E1,7.4380444E2,1.0995074E3,2.8455156E1,2.697219E2,4.23528E1,9.286529E1,1.21545975E2,2.661951E2,7.7068405E1,1.2953925E2,3.2635732E3,1.6385196E0,2.468342E0,1.1121814E1,1.2010661E2,3.406637E1,7.3368866E2,6.616205E1,8.491051E0,1.5202022E1,2.7643747E1,5.8342457E0,6.1347275E1,1.0588524E2,2.471254E2,5.2061024E0,1.6771181E0,1.7361577E0,1.5887147E1,2.611376E2,7.004095E1,4.1109333E1,2.6662672E0,7.097492E1,3.1307571E1,1.59589405E1,3.1573215E1,1.2406153E1,5.101109E1,1.789189E1,2.2244377E1,4.926675E1,1.7456642E0,4.5043902E0,1.3401704E2,1.2457154E0,2.1194543E3,1.3647305E3,3.2185698E0,8.426527E0,3.659008E1,3.206412E1,6.909026E2,5.29019E1,5.62955E2,5.365524E2,9.286335E0,1.9168821E1,1.8952586E2,8.019603E1,3.3228775E1,9.1240225E0,1.1101684E1,8.17636E1,4.8728268E1,7.281771E1,1.1065441E2,1.555407E2,2.3828957E1,5.323945E1,1.0177585E2,2.7763401E1],"tree_param":{"num_deleted":"0","num_feature":"29","num_nodes":"125","size_leaf_vector":"1"}},{"base_weights":[-1.24447765E-2,-1.4879369E0,1.2292029E0,-1.6066006E0,-6.484701E-2,1.5078284E0,-3.7244052E-1,-1.6584213E0,-1.0519307E0,-5.8624685E-1,7.036249E-1,1.635781E0,1.0901623E0,1.6606908E-1,-1.0039988E0,-1.4444184E0,-1.7168741E0,-1.2086052E0,1.7839618E-1,-9.9768734E-1,6.9685984E-1,1.0557525E0,-6.9628066E-1,1.0778048E0,1.6753347E0,2.0462716E-1,1.1928842E0,-5.7732993E-1,3.7002474E-1,-6.7355746E-1,-1.3354508E0,-1.1264211E0,-1.6688532E0,-1.6415862E0,-1.7378753E0,-7.4142593E-1,-1.5486708E0,5.535994E-1,-9.4090563E-1,-4.7610503E-1,-1.4682481E0,1.0519776E0,2.9428253E-2,1.3220305E0,3.1629753E-1,-1.4132621E0,-1.03993975E-1,-3.6451504E-1,1.3038588E0,1.1726193E0,1.6863863E0,-5.6956935E-1,7.497174E-1,1.3479948E0,9.5262367E-1,-1.111738E0,-2.644529E-1,6.135601E-1,2.8055316E-2,-1.6349926E0,-5.163021E-1,-1.172726E0,-1.6781456E0,-7.2506E-2,-2.7289027E-2,-8.3565645E-2,-8.749234E-3,-8.682481E-2,-7.633508E-2,-8.691944E-2,-2.4657724E-2,-1.4341994E-2,-6.847554E-2,-6.774788E-2,-8.472534E-2,-4.3138754E-4,6.4460255E-2,2.2434272E-2,-6.0109176E-2,-3.961329E-2,1.7499698E-2,2.7212739E-2,-7.480109E-2,6.5401055E-2,3.856249E-3,-4.4947263E-2,2.0625522E-2,6.818115E-2,-3.417851E-2,-1.4590228E-2,5.4540705E-2,2.226532E-2,-8.391646E-2,8.62598E-3,-7.506347E-2,1.0279313E-2,-4.7261693E-2,3.954899E-2,7.466754E-2,6.213889E-3,6.686154E-2,-3.2384433E-2,8.441391E-2,-5.4460295E-2,-1.2170175E-2,-5.547163E-3,4.688777E-2,9.234619E-3,6.874553E-2,7.063609E-2,4.202675E-2,-6.0159612E-2,3.930951E-2,-5.396227E-2,9.893468E-3,4.0938005E-2,1.0563955E-2,8.968576E-3,-4.100268E-2,-8.871816E-2,-5.0444715E-3,-5.8463752E-2,-1.438761E-2,-6.18042E-2,-7.913527E-3,-8.590371E-2,-4.0646844E-2],"categories":[],"categories_nodes":[],"categories_segments":[],"categories_sizes":[],"default_left":[0,0,0,0,0,0,0,0,0,0,0,1,1,1,0,0,0,0,0,0,0,0,0,0,0,1,0,1,0,0,0,1,0,1,1,0,0,0,0,0,0,0,0,1,0,0,0,0,1,0,0,1,0,1,0,0,0,0,0,1,0,0,0,0,0,0,0,0,0,0,0,0,0,0,0,0,0,0,0,0,0,0,0,0,0,0,0,0,0,0,0,0,0,0,0,0,0,0,0,0,0,0,0,0,0,0,0,0,0,0,0,0,0,0,0,0,0,0,0,0,0,0,0,0,0,0,0],"id":3,"left_children":[1,3,5,7,9,11,13,15,17,19,21,23,25,27,29,31,33,35,37,39,41,43,45,47,49,51,53,55,57,59,61,63,65,67,69,71,73,75,77,79,81,83,85,87,89,91,93,95,97,99,101,103,105,107,109,111,113,115,117,119,121,123,125,-1,-1,-1,-1,-1,-1,-1,-1,-1,-1,-1,-1,-1,-1,-1,-1,-1,-1,-1,-1,-1,-1,-1,-1,-1,-1,-1,-1,-1,-1,-1,-1,-1,-1,-1,-1,-1,-1,-1,-1,-1,-1,-1,-1,-1,-1,-1,-1,-1,-1,-1,-1,-1,-1,-1,-1,-1,-1,-1,-1,-1,-1,-1,-1],"loss_changes":[2.171514E4,9.1440234E2,2.8730166E3,1.4168652E2,1.678833E2,2.909629E2,3.2488757E2,5.4375E1,8.3219635E1,1.325228E2,8.424705E1,9.050195E1,1.168678E2,7.842808E1,4.7040405E1,6.829712E1,2.477539E0,5.9262756E1,2.121999E1,4.561841E1,1.435359E1,2.6149475E1,1.4386044E1,9.207596E1,1.9488281E1,5.7537926E1,4.151758E1,1.8190414E1,3.3699364E1,3.2546562E1,9.918457E0,7.639337E1,1.6412354E0,5.7546387E0,6.9921875E-1,4.593438E1,3.6101074E0,1.5722469E1,5.2259407E0,2.4209435E1,6.4454956E0,9.690971E0,8.275022E0,9.292114E0,1.799331E1,8.50054E0,8.154951E0,1.3096897E1,2.2197876E1,1.4821762E1,1.8103516E1,9.159014E0,1.3117348E1,2.1477661E1,2.2138489E1,8.051498E0,2.7301989E1,1.9262115E1,2.1890953E1,6.1961823E0,2.8257858E1,9.403122E0,6.909027E-1,0E0,0E0,0E0,0E0,0E0,0E0,0E0,0E0,0E0,0E0,0E0,0E0,0E0,0E0,0E0,0E0,0E0,0E0,0E0,0E0,0E0,0E0,0E0,0E0,0E0,0E0,0E0,0E0,0E0,0E0,0E0,0E0,0E0,0E0,0E0,0E0,0E0,0E0,0E0,0E0,0E0,0E0,0E0,0E0,0E0,0E0,0E0,0E0,0E0,0E0,0E0,0E0,0E0,0E0,0E0,0E0,0E0,0E0,0E0,0E0,0E0,0E0,0E0,0E0],"parents":[2147483647,0,0,1,1,2,2,3,3,4,4,5,5,6,6,7,7,8,8,9,9,10,10,11,11,12,12,13,13,14,14,15,15,16,16,17,17,18,18,19,19,20,20,21,21,22,22,23,23,24,24,25,25,26,26,27,27,28,28,29,29,30,30,31,31,32,32,33,33,34,34,35,35,36,36,37,37,38,38,39,39,40,40,41,41,42,42,43,43,44,44,45,45,46,46,47,47,48,48,49,49,50,50,51,51,52,52,53,53,54,54,55,55,56,56,57,57,58,58,59,59,60,60,61,61,62,62],"right_children":[2,4,6,8,10,12,14,16,18,20,22,24,26,28,30,32,34,36,38,40,42,44,46,48,50,52,54,56,58,60,62,64,66,68,70,72,74,76,78,80,82,84,86,88,90,92,94,96,98,100,102,104,106,108,110,112,114,116,118,120,122,124,126,-1,-1,-1,-1,-1,-1,-1,-1,-1,-1,-1,-1,-1,-1,-1,-1,-1,-1,-1,-1,-1,-1,-1,-1,-1,-1,-1,-1,-1,-1,-1,-1,-1,-1,-1,-1,-1,-1,-1,-1,-1,-1,-1,-1,-1,-1,-1,-1,-1,-1,-1,-1,-1,-1,-1,-1,-1,-1,-1,-1,-1,-1,-1,-1],"split_conditions":[2E1,6E0,2.2E0,1.5E1,1.5E1,-5E-1,4E0,3E0,2E0,1.2E1,-2E-1,2.5E1,2.5E1,3.3E1,5.3E0,6E-1,2E-1,7.9E1,-5E-1,3E0,6.4E1,6.4E1,1E0,-2E0,1E1,-1E0,1E0,-3E0,7.1433334E1,6.6E0,7.4E0,2.4E1,2.21E2,6.7E0,4.06E1,3E-1,2.93E2,1.8E1,6.6666665E0,6E0,-8.3E0,-8E-1,8E0,3.33E1,7E0,1.8666666E1,4.7E1,8.4E1,0E0,-9E0,-4.5973274E-1,2.2E1,2.1E1,1.3E1,5.79E1,2.8E0,6.648554E-1,3.3E0,3.6E0,0E0,-1.2910296E-2,2.39E1,1.0366667E1,-7.2506E-2,-2.7289027E-2,-8.3565645E-2,-8.749234E-3,-8.682481E-2,-7.633508E-2,-8.691944E-2,-2.4657724E-2,-1.4341994E-2,-6.847554E-2,-6.774788E-2,-8.472534E-2,-4.3138754E-4,6.4460255E-2,2.2434272E-2,-6.0109176E-2,-3.961329E-2,1.7499698E-2,2.7212739E-2,-7.480109E-2,6.5401055E-2,3.856249E-3,-4.4947263E-2,2.0625522E-2,6.818115E-2,-3.417851E-2,-1.4590228E-2,5.4540705E-2,2.226532E-2,-8.391646E-2,8.62598E-3,-7.506347E-2,1.0279313E-2,-4.7261693E-2,3.954899E-2,7.466754E-2,6.213889E-3,6.686154E-2,-3.2384433E-2,8.441391E-2,-5.4460295E-2,-1.2170175E-2,-5.547163E-3,4.688777E-2,9.234619E-3,6.874553E-2,7.063609E-2,4.202675E-2,-6.0159612E-2,3.930951E-2,-5.396227E-2,9.893468E-3,4.0938005E-2,1.0563955E-2,8.968576E-3,-4.100268E-2,-8.871816E-2,-5.0444715E-3,-5.8463752E-2,-1.438761E-2,-6.18042E-2,-7.913527E-3,-8.590371E-2,-4.0646844E-2],"split_indices":[16,14,1,16,14,1,1,5,14,16,1,16,16,16,1,1,1,5,1,5,5,5,16,14,17,14,1,14,19,4,1,12,17,12,21,1,5,16,22,16,6,1,18,4,16,22,14,5,14,14,27,16,16,17,19,9,27,1,1,14,27,4,6,0,0,0,0,0,0,0,0,0,0,0,0,0,0,0,0,0,0,0,0,0,0,0,0,0,0,0,0,0,0,0,0,0,0,0,0,0,0,0,0,0,0,0,0,0,0,0,0,0,0,0,0,0,0,0,0,0,0,0,0,0,0,0,0],"split_type":[0,0,0,0,0,0,0,0,0,0,0,0,0,0,0,0,0,0,0,0,0,0,0,0,0,0,0,0,0,0,0,0,0,0,0,0,0,0,0,0,0,0,0,0,0,0,0,0,0,0,0,0,0,0,0,0,0,0,0,0,0,0,0,0,0,0,0,0,0,0,0,0,0,0,0,0,0,0,0,0,0,0,0,0,0,0,0,0,0,0,0,0,0,0,0,0,0,0,0,0,0,0,0,0,0,0,0,0,0,0,0,0,0,0,0,0,0,0,0,0,0,0,0,0,0,0,0],"sum_hessian":[1.1850963E4,5.415465E3,6.435498E3,4.99847E3,4.169946E2,5.4819644E3,9.535336E2,4.5693984E3,4.2907178E2,2.4865329E2,1.683413E2,4.193977E3,1.2879877E3,5.1499365E2,4.3853998E2,9.862039E2,3.5831943E3,3.8069196E2,4.837983E1,1.8850706E2,6.0146225E1,1.3476118E2,3.3580105E1,2.7965906E2,3.9143179E3,1.3428899E2,1.1536986E3,1.1037312E2,4.046205E2,2.2127429E2,2.1726569E2,4.1072275E2,5.7548114E2,7.9982025E2,2.783374E3,1.6183655E2,2.1885541E2,3.6679256E1,1.1700574E1,9.046145E1,9.8045616E1,3.8784378E1,2.1361845E1,9.84031E1,3.635809E1,1.4487539E1,1.9092567E1,3.7749092E1,2.4190996E2,8.669883E1,3.8276191E3,5.538988E1,7.88991E1,6.980292E2,4.556695E2,3.969662E1,7.06765E1,2.3568765E2,1.6893286E2,2.969439E1,1.915799E2,1.5051112E2,6.675456E1,2.6263678E2,1.4808597E2,5.7434973E2,1.1314315E0,4.2977917E2,3.7004105E2,2.7817498E3,1.6244537E0,9.482291E1,6.701364E1,9.8712685E1,1.2014272E2,2.1272728E1,1.54065275E1,1.6777184E0,1.0022856E1,6.554021E1,2.4921242E1,1.0325099E0,9.701311E1,3.0364777E1,8.419602E0,5.77029E0,1.5591555E1,9.6766304E1,1.6367989E0,2.064391E1,1.571418E1,1.6763384E0,1.2811201E1,1.6610415E1,2.4821517E0,1.9287758E1,1.8461334E1,6.6802986E1,1.7510698E2,1.2086628E1,7.4612206E1,2.7805607E0,3.8248384E3,2.033956E1,3.505032E1,1.4125243E1,6.477386E1,1.604717E1,6.81982E2,8.6815636E1,3.6885388E2,3.827121E1,1.4254137E0,2.5180506E1,4.5495995E1,1.5522491E2,8.0462746E1,1.4412506E2,2.4807802E1,2.7018051E1,2.6763394E0,4.848976E1,1.4309013E2,1.4136511E2,9.14602E0,6.2757072E1,3.9974875E0],"tree_param":{"num_deleted":"0","num_feature":"29","num_nodes":"127","size_leaf_vector":"1"}},{"base_weights":[-4.7808276E-3,-1.5156319E0,1.2442442E0,-1.6330271E0,-1.1960429E0,1.4458303E0,-4.0207332E-1,-1.6484027E0,-7.410048E-1,-5.251518E-1,-1.5757564E0,1.5637667E0,9.5406145E-1,7.074146E-3,-1.0194148E0,-1.6646636E0,-1.4203587E0,-3.5546702E-1,-1.4732236E0,-7.8227925E-1,2.539936E-1,-1.6115386E0,-1.1828703E0,9.032179E-1,1.5957379E0,2.9015622E-1,1.0367957E0,-4.541317E-1,2.126513E-1,-1.2430748E0,-5.228847E-1,-1.6654495E0,-4.3882024E-1,-1.5974648E0,-1.132042E0,-8.857277E-1,1.5243766E-1,-8.752803E-3,-7.639052E-2,-1.025517E0,4.173841E-2,5.5249393E-1,-7.199849E-1,-1.6150805E0,8.899456E-4,-3.4112623E-1,-1.4074254E0,-2.3519227E-2,1.1282567E0,1.6513135E0,1.4683727E0,-6.7976606E-1,4.9076027E-1,1.1820995E0,7.3369E-1,-1.2284574E-1,-8.420465E-1,-4.394505E-1,3.6188194E-1,-5.5108184E-1,-1.3889439E0,5.2490894E-2,-7.7633613E-1,-8.381029E-2,-7.732784E-2,2.7388796E-2,-5.248327E-2,-3.929869E-2,-8.156116E-2,4.2734664E-2,-5.8452178E-2,-1.9384455E-2,-6.696889E-2,3.064236E-2,-4.1876312E-2,-6.210024E-2,-1.630807E-2,1.9214094E-2,-4.842445E-2,-1.765052E-2,3.7223425E-2,7.409745E-2,-4.964141E-2,-5.646873E-3,-8.092233E-2,6.57137E-2,-3.778174E-2,-7.2473556E-2,2.5930567E-2,-6.590428E-2,1.9650368E-2,2.7807308E-2,6.3738644E-2,7.30751E-2,8.329065E-2,7.665988E-2,6.210477E-2,-4.8760675E-2,5.2666098E-2,-2.2131788E-2,3.3667047E-2,1.158163E-2,6.128594E-2,4.355138E-2,1.0033416E-3,1.4224035E-2,-5.6757607E-2,-5.416293E-2,-6.195522E-3,-8.994355E-3,-7.4160084E-2,3.593435E-2,7.1470486E-3,-5.5520865E-4,-7.2406575E-2,-1.9624464E-2,-7.0836745E-2,-6.461356E-2,1.8060695E-2,-4.3332625E-2,2.2386378E-2],"categories":[],"categories_nodes":[],"categories_segments":[],"categories_sizes":[],"default_left":[0,1,0,0,0,0,0,0,0,0,0,0,0,0,0,1,1,0,0,0,0,0,0,0,0,0,0,0,0,0,0,1,0,0,0,0,0,0,0,0,0,0,0,0,0,0,0,0,0,1,0,0,0,0,0,0,0,0,0,0,0,0,0,0,0,0,0,0,0,0,0,0,0,0,0,0,0,0,0,0,0,0,0,0,0,0,0,0,0,0,0,0,0,0,0,0,0,0,0,0,0,0,0,0,0,0,0,0,0,0,0,0,0,0,0,0,0,0,0,0,0],"id":4,"left_children":[1,3,5,7,9,11,13,15,17,19,21,23,25,27,29,31,33,35,37,39,41,43,45,47,49,51,53,55,57,59,61,63,65,67,69,71,73,-1,-1,75,77,79,81,83,-1,85,87,89,91,93,95,97,99,101,103,105,107,109,111,113,115,117,119,-1,-1,-1,-1,-1,-1,-1,-1,-1,-1,-1,-1,-1,-1,-1,-1,-1,-1,-1,-1,-1,-1,-1,-1,-1,-1,-1,-1,-1,-1,-1,-1,-1,-1,-1,-1,-1,-1,-1,-1,-1,-1,-1,-1,-1,-1,-1,-1,-1,-1,-1,-1,-1,-1,-1,-1,-1,-1],"loss_changes":[2.220418E4,1.9755078E2,2.13838E3,5.1914062E1,3.6440625E2,3.310957E2,1.7777579E2,1.1509766E1,1.8452465E1,1.044426E2,1.0684326E1,9.602539E1,6.069049E1,4.026647E1,3.0320953E1,2.491211E0,1.1286377E1,1.2561174E1,1.1922188E0,7.858417E1,3.808978E1,5.0134277E0,1.4543854E1,4.519748E1,2.8493164E1,2.4603207E1,4.2497925E1,1.6618399E1,2.876701E1,1.8472076E1,1.3087233E1,1.6396484E0,2.8686604E0,2.846283E0,8.621902E0,4.4328136E0,1.1513557E1,0E0,0E0,4.5207733E1,3.1480118E1,1.7671595E1,1.991536E1,3.8623047E0,0E0,1.3526795E1,5.95166E0,2.385537E1,1.3689484E1,5.6816406E0,1.7618896E1,1.2144608E1,1.806254E1,2.720868E1,3.1582031E1,3.005421E1,1.0133823E1,1.4491432E1,1.8557264E1,1.6932749E1,3.6443176E0,1.2007195E1,7.278179E0,0E0,0E0,0E0,0E0,0E0,0E0,0E0,0E0,0E0,0E0,0E0,0E0,0E0,0E0,0E0,0E0,0E0,0E0,0E0,0E0,0E0,0E0,0E0,0E0,0E0,0E0,0E0,0E0,0E0,0E0,0E0,0E0,0E0,0E0,0E0,0E0,0E0,0E0,0E0,0E0,0E0,0E0,0E0,0E0,0E0,0E0,0E0,0E0,0E0,0E0,0E0,0E0,0E0,0E0,0E0,0E0,0E0,0E0],"parents":[2147483647,0,0,1,1,2,2,3,3,4,4,5,5,6,6,7,7,8,8,9,9,10,10,11,11,12,12,13,13,14,14,15,15,16,16,17,17,18,18,19,19,20,20,21,21,22,22,23,23,24,24,25,25,26,26,27,27,28,28,29,29,30,30,31,31,32,32,33,33,34,34,35,35,36,36,39,39,40,40,41,41,42,42,43,43,45,45,46,46,47,47,48,48,49,49,50,50,51,51,52,52,53,53,54,54,55,55,56,56,57,57,58,58,59,59,60,60,61,61,62,62],"right_children":[2,4,6,8,10,12,14,16,18,20,22,24,26,28,30,32,34,36,38,40,42,44,46,48,50,52,54,56,58,60,62,64,66,68,70,72,74,-1,-1,76,78,80,82,84,-1,86,88,90,92,94,96,98,100,102,104,106,108,110,112,114,116,118,120,-1,-1,-1,-1,-1,-1,-1,-1,-1,-1,-1,-1,-1,-1,-1,-1,-1,-1,-1,-1,-1,-1,-1,-1,-1,-1,-1,-1,-1,-1,-1,-1,-1,-1,-1,-1,-1,-1,-1,-1,-1,-1,-1,-1,-1,-1,-1,-1,-1,-1,-1,-1,-1,-1,-1,-1,-1,-1],"split_conditions":[2E1,5.2E0,2.7E0,1.9E1,6E-1,1E-1,4.6E0,1.5E1,1E0,1.4E1,1.2E1,2.3E1,2.5E1,3.7E1,1.38E1,3.2E2,5E-1,2E-1,4.5E0,2.2E1,5.2E1,5.79E1,7.33E1,1.1E1,-2.4E0,1.4E1,1.7E0,7.9094565E-1,7.1E0,6.616346E-1,5.1E0,3.1E0,2E0,-9.633333E0,7E-1,1.5666667E0,5E0,-8.752803E-3,-7.639052E-2,9E0,1E0,6.666667E-1,8.1E0,7E-1,8.899456E-4,1E0,1.98E3,2.9E0,1.1E1,2E1,1E1,7.8E0,2.1E1,1.8E1,8.84E1,7.88E1,3.2E0,7.7666664E1,3.3E0,5.8E0,4.6E1,1.404E3,9.997685E-1,-8.381029E-2,-7.732784E-2,2.7388796E-2,-5.248327E-2,-3.929869E-2,-8.156116E-2,4.2734664E-2,-5.8452178E-2,-1.9384455E-2,-6.696889E-2,3.064236E-2,-4.1876312E-2,-6.210024E-2,-1.630807E-2,1.9214094E-2,-4.842445E-2,-1.765052E-2,3.7223425E-2,7.409745E-2,-4.964141E-2,-5.646873E-3,-8.092233E-2,6.57137E-2,-3.778174E-2,-7.2473556E-2,2.5930567E-2,-6.590428E-2,1.9650368E-2,2.7807308E-2,6.3738644E-2,7.30751E-2,8.329065E-2,7.665988E-2,6.210477E-2,-4.8760675E-2,5.2666098E-2,-2.2131788E-2,3.3667047E-2,1.158163E-2,6.128594E-2,4.355138E-2,1.0033416E-3,1.4224035E-2,-5.6757607E-2,-5.416293E-2,-6.195522E-3,-8.994355E-3,-7.4160084E-2,3.593435E-2,7.1470486E-3,-5.5520865E-4,-7.2406575E-2,-1.9624464E-2,-7.0836745E-2,-6.461356E-2,1.8060695E-2,-4.3332625E-2,2.2386378E-2],"split_indices":[0,24,1,0,1,1,1,0,1,0,0,0,0,0,4,18,24,24,21,24,5,4,19,17,1,18,1,26,4,26,1,24,23,6,12,20,15,0,0,17,5,22,12,10,0,1,25,24,18,17,15,3,0,17,2,2,3,19,1,1,22,25,26,0,0,0,0,0,0,0,0,0,0,0,0,0,0,0,0,0,0,0,0,0,0,0,0,0,0,0,0,0,0,0,0,0,0,0,0,0,0,0,0,0,0,0,0,0,0,0,0,0,0,0,0,0,0,0,0,0,0],"split_type":[0,0,0,0,0,0,0,0,0,0,0,0,0,0,0,0,0,0,0,0,0,0,0,0,0,0,0,0,0,0,0,0,0,0,0,0,0,0,0,0,0,0,0,0,0,0,0,0,0,0,0,0,0,0,0,0,0,0,0,0,0,0,0,0,0,0,0,0,0,0,0,0,0,0,0,0,0,0,0,0,0,0,0,0,0,0,0,0,0,0,0,0,0,0,0,0,0,0,0,0,0,0,0,0,0,0,0,0,0,0,0,0,0,0,0,0,0,0,0,0,0],"sum_hessian":[1.176434E4,5.324075E3,6.4402646E3,3.8905361E3,1.4335393E3,5.7378643E3,7.024E2,3.823668E3,6.686806E1,5.1907184E2,9.144675E2,4.6260576E3,1.1118066E3,4.2292798E2,2.7947202E2,3.5628772E3,2.6079083E2,4.4866413E1,2.200164E1,3.9036945E2,1.2870236E2,8.350581E2,7.940944E1,2.1506369E2,4.410994E3,1.23831474E2,9.8797516E2,1.29871E2,2.9305698E2,1.9150461E2,8.79674E1,3.5601545E3,2.722661E0,1.585251E2,1.0226574E2,2.1682518E1,2.3183897E1,1.1314986E0,2.0870142E1,3.0130542E2,8.9064026E1,9.892095E1,2.9781408E1,8.333168E2,1.7413079E0,1.734736E1,6.206208E1,4.2108173E1,1.729555E2,3.0620996E3,1.3488945E3,2.0727373E1,1.031041E2,6.6564606E2,3.223291E2,7.089766E1,5.8973347E1,5.408849E1,2.3896849E2,3.4291534E1,1.5721307E2,2.7021833E1,6.0945568E1,3.2520042E3,3.081504E2,1.017999E0,1.704662E0,7.4194484E0,1.5110565E2,1.4163398E0,1.008494E2,1.1324727E1,1.035779E1,1.6153315E1,7.030583E0,2.293809E2,7.192452E1,6.704821E1,2.2015816E1,1.7065725E1,8.1855225E1,2.7544117E0,2.7026997E1,2.006819E0,8.3131E2,2.9908874E0,1.4356474E1,6.1029156E1,1.0329237E0,9.781827E0,3.2326347E1,3.6379745E1,1.3657578E2,2.2502258E2,2.8370771E3,1.0436793E3,3.052152E2,1.8131424E1,2.5959485E0,1.6545826E1,8.655827E1,2.9585268E1,6.360608E2,2.7000552E2,5.232356E1,5.0997677E1,1.989998E1,4.3660652E1,1.5312697E1,4.4332016E1,9.7564745E0,8.98317E1,1.4913678E2,2.2107695E1,1.2183841E1,4.7736316E0,1.5243944E2,4.389948E0,2.2631886E1,5.7105762E1,3.8398092E0],"tree_param":{"num_deleted":"0","num_feature":"29","num_nodes":"121","size_leaf_vector":"1"}},{"base_weights":[4.484074E-3,-1.4567238E0,1.1905911E0,-1.5348554E0,-9.3016434E-1,1.3936635E0,1.7418557E-1,-1.5825677E0,-1.0477406E0,-1.3649317E0,-3.0023354E-1,1.5207927E0,1.1070523E0,8.6446774E-1,-2.3339121E-1,-1.6083378E0,-1.4023584E0,1.4099947E-1,-1.2176806E0,-1.4688696E0,-7.51235E-1,2.4025792E-2,-7.193875E-1,7.9669374E-1,1.5414083E0,1.3553351E-1,1.1479053E0,1.2416357E0,1.3265984E-1,6.5893404E-2,-8.4830856E-1,-8.871143E-1,-1.612156E0,-6.628723E-1,-1.5101244E0,7.4199027E-1,-2.5558668E-1,-8.744474E-1,-1.4050101E0,-8.8923347E-1,-1.5056803E0,-1.089555E0,-1.15472265E-1,3.7811315E-1,-4.195463E-1,-2.8144455E-1,-1.0343271E0,1.0942289E0,3.6812487E-1,-9.324349E-1,1.5441154E0,-4.5387822E-1,5.1967657E-1,1.4154098E0,1.0242888E0,3.7249663E-1,1.3202761E0,-5.236694E-1,4.3725067E-1,3.4773147E-1,-2.63111E-1,-3.2595685E-1,-1.1468033E0,4.9081452E-2,-6.41143E-2,-3.5945233E-2,-8.065023E-2,1.9501777E-2,-4.3792855E-2,-7.876758E-2,-5.966097E-2,7.220071E-2,-1.172916E-3,-7.178272E-2,-4.6113302E-4,-9.932955E-3,-5.795716E-2,-7.2348095E-2,-2.233625E-2,1.5906658E-2,-6.2233306E-2,-7.571507E-2,1.5832338E-2,-6.0711652E-2,2.3795577E-2,2.4072846E-2,-5.8057155E-2,3.27403E-2,-3.758942E-3,-6.1574824E-2,4.8369686E-3,7.3516965E-3,-5.878247E-2,-6.9106854E-2,-3.3244323E-2,-2.4539355E-2,5.70507E-2,5.3497043E-2,-3.6198613E-3,-7.330576E-2,1.9842695E-2,6.037401E-2,7.798447E-2,1.9595927E-2,-4.8845727E-2,6.667805E-2,-4.3190588E-4,7.321688E-2,4.802805E-2,6.1454188E-2,4.354074E-2,-3.7264533E-2,5.6632467E-2,7.145447E-2,4.0460814E-2,1.1059516E-2,-4.517068E-2,3.8488567E-2,-5.0982083E-3,2.4816152E-2,-4.0897854E-2,-2.8546482E-2,9.590119E-3,-6.199056E-3,-6.474173E-2,-6.495856E-2,-1.6028777E-2],"categories":[],"categories_nodes":[],"categories_segments":[],"categories_sizes":[],"default_left":[0,0,0,1,1,0,1,1,0,0,0,0,0,0,0,0,0,0,0,0,0,0,0,0,0,0,0,0,0,0,0,0,0,0,1,0,0,0,0,0,0,0,0,0,0,0,0,0,0,0,1,0,0,0,0,0,0,0,0,0,0,0,0,0,0,0,0,0,0,0,0,0,0,0,0,0,0,0,0,0,0,0,0,0,0,0,0,0,0,0,0,0,0,0,0,0,0,0,0,0,0,0,0,0,0,0,0,0,0,0,0,0,0,0,0,0,0,0,0,0,0,0,0,0,0,0,0],"id":5,"left_children":[1,3,5,7,9,11,13,15,17,19,21,23,25,27,29,31,33,35,37,39,41,43,45,47,49,51,53,55,57,59,61,63,65,67,69,71,73,75,77,79,81,83,85,87,89,91,93,95,97,99,101,103,105,107,109,111,113,115,117,119,121,123,125,-1,-1,-1,-1,-1,-1,-1,-1,-1,-1,-1,-1,-1,-1,-1,-1,-1,-1,-1,-1,-1,-1,-1,-1,-1,-1,-1,-1,-1,-1,-1,-1,-1,-1,-1,-1,-1,-1,-1,-1,-1,-1,-1,-1,-1,-1,-1,-1,-1,-1,-1,-1,-1,-1,-1,-1,-1,-1,-1,-1,-1,-1,-1,-1],"loss_changes":[2.0157508E4,2.1270898E2,1.3246377E3,1.0350098E2,1.8456354E2,1.9300488E2,3.0137177E2,1.661914E1,8.266089E1,2.4162537E1,3.779242E1,5.3823242E1,6.512097E1,1.09449524E2,1.2410368E2,8.24707E0,4.0611206E1,1.2591485E1,2.149585E1,5.687378E0,1.2671959E1,2.4852669E1,1.6289963E1,1.2804932E1,2.5607422E1,1.5578342E1,5.0593018E1,1.7259125E1,2.7497454E1,4.218945E1,3.3891174E1,1.7053461E1,1.3251953E0,1.57882805E1,7.2945557E0,1.1439654E1,9.107151E0,2.442871E1,8.374329E0,1.0332582E1,5.60437E0,8.259468E0,1.4409892E1,1.1156517E1,2.9640678E1,2.0273762E1,7.868088E0,5.160904E0,1.3952997E1,3.8938618E0,1.669336E1,1.2455072E1,1.8021027E1,9.408691E0,3.283191E1,2.0640606E1,1.1962311E1,1.2600946E1,1.6971582E1,4.282366E1,2.9531132E1,1.5700487E1,1.7037247E1,0E0,0E0,0E0,0E0,0E0,0E0,0E0,0E0,0E0,0E0,0E0,0E0,0E0,0E0,0E0,0E0,0E0,0E0,0E0,0E0,0E0,0E0,0E0,0E0,0E0,0E0,0E0,0E0,0E0,0E0,0E0,0E0,0E0,0E0,0E0,0E0,0E0,0E0,0E0,0E0,0E0,0E0,0E0,0E0,0E0,0E0,0E0,0E0,0E0,0E0,0E0,0E0,0E0,0E0,0E0,0E0,0E0,0E0,0E0,0E0,0E0,0E0,0E0,0E0],"parents":[2147483647,0,0,1,1,2,2,3,3,4,4,5,5,6,6,7,7,8,8,9,9,10,10,11,11,12,12,13,13,14,14,15,15,16,16,17,17,18,18,19,19,20,20,21,21,22,22,23,23,24,24,25,25,26,26,27,27,28,28,29,29,30,30,31,31,32,32,33,33,34,34,35,35,36,36,37,37,38,38,39,39,40,40,41,41,42,42,43,43,44,44,45,45,46,46,47,47,48,48,49,49,50,50,51,51,52,52,53,53,54,54,55,55,56,56,57,57,58,58,59,59,60,60,61,61,62,62],"right_children":[2,4,6,8,10,12,14,16,18,20,22,24,26,28,30,32,34,36,38,40,42,44,46,48,50,52,54,56,58,60,62,64,66,68,70,72,74,76,78,80,82,84,86,88,90,92,94,96,98,100,102,104,106,108,110,112,114,116,118,120,122,124,126,-1,-1,-1,-1,-1,-1,-1,-1,-1,-1,-1,-1,-1,-1,-1,-1,-1,-1,-1,-1,-1,-1,-1,-1,-1,-1,-1,-1,-1,-1,-1,-1,-1,-1,-1,-1,-1,-1,-1,-1,-1,-1,-1,-1,-1,-1,-1,-1,-1,-1,-1,-1,-1,-1,-1,-1,-1,-1,-1,-1,-1,-1,-1,-1],"split_conditions":[2E1,1.3E1,3.1E0,1.8E1,3.1E0,2E-1,-4E-1,8E0,3.3333335E-2,1.9E1,-2.3333333E-1,2.2E1,2.2E1,3.2857144E0,5.3E0,-1.7E1,-6.333333E-1,-2E-1,-3E0,-7.1E0,2E-1,3E0,-1.2E0,1.19E2,-4.5973274E-1,7.829801E-1,-1.2E0,2.4E1,-4.7321387E-2,8.9198136E-1,8.311706E-1,-5.4333334E0,-4.7495106E-1,-2.9E0,8E0,2.2666667E0,2.23E1,3.642857E0,1.709E3,3.2E1,1.9E1,9.986668E-1,9E-1,-1.8285714E0,8.3E0,7.1E1,1.19E1,-7.35417E-1,2.8E0,4.41E2,1.3E1,2.98E1,6.96E1,2.1857142E0,1.3E0,2.8E0,2.9666667E0,-4.6E0,4.614286E0,8.573333E1,1E-1,5.15E2,1E0,4.9081452E-2,-6.41143E-2,-3.5945233E-2,-8.065023E-2,1.9501777E-2,-4.3792855E-2,-7.876758E-2,-5.966097E-2,7.220071E-2,-1.172916E-3,-7.178272E-2,-4.6113302E-4,-9.932955E-3,-5.795716E-2,-7.2348095E-2,-2.233625E-2,1.5906658E-2,-6.2233306E-2,-7.571507E-2,1.5832338E-2,-6.0711652E-2,2.3795577E-2,2.4072846E-2,-5.8057155E-2,3.27403E-2,-3.758942E-3,-6.1574824E-2,4.8369686E-3,7.3516965E-3,-5.878247E-2,-6.9106854E-2,-3.3244323E-2,-2.4539355E-2,5.70507E-2,5.3497043E-2,-3.6198613E-3,-7.330576E-2,1.9842695E-2,6.037401E-2,7.798447E-2,1.9595927E-2,-4.8845727E-2,6.667805E-2,-4.3190588E-4,7.321688E-2,4.802805E-2,6.1454188E-2,4.354074E-2,-3.7264533E-2,5.6632467E-2,7.145447E-2,4.0460814E-2,1.1059516E-2,-4.517068E-2,3.8488567E-2,-5.0982083E-3,2.4816152E-2,-4.0897854E-2,-2.8546482E-2,9.590119E-3,-6.199056E-3,-6.474173E-2,-6.495856E-2,-1.6028777E-2],"split_indices":[0,0,10,24,24,10,8,24,6,0,6,0,0,7,10,14,6,10,8,10,24,14,8,5,27,27,8,0,27,26,26,6,27,10,17,20,11,7,25,5,15,27,10,7,24,5,24,26,12,5,17,13,2,7,10,3,6,8,7,19,24,5,24,0,0,0,0,0,0,0,0,0,0,0,0,0,0,0,0,0,0,0,0,0,0,0,0,0,0,0,0,0,0,0,0,0,0,0,0,0,0,0,0,0,0,0,0,0,0,0,0,0,0,0,0,0,0,0,0,0,0,0,0,0,0,0,0],"split_type":[0,0,0,0,0,0,0,0,0,0,0,0,0,0,0,0,0,0,0,0,0,0,0,0,0,0,0,0,0,0,0,0,0,0,0,0,0,0,0,0,0,0,0,0,0,0,0,0,0,0,0,0,0,0,0,0,0,0,0,0,0,0,0,0,0,0,0,0,0,0,0,0,0,0,0,0,0,0,0,0,0,0,0,0,0,0,0,0,0,0,0,0,0,0,0,0,0,0,0,0,0,0,0,0,0,0,0,0,0,0,0,0,0,0,0,0,0,0,0,0,0,0,0,0,0,0,0],"sum_hessian":[1.1628583E4,5.209948E3,6.4186353E3,4.534943E3,6.750054E2,5.3493867E3,1.0692487E3,4.1281426E3,4.0680017E2,3.98584E2,2.7642133E2,3.7024663E3,1.6469203E3,3.9663022E2,6.726184E2,3.6042517E3,5.2389087E2,5.082916E1,3.55971E2,3.3952448E2,5.9059536E1,1.5624986E2,1.2017147E2,1.0372543E2,3.5987407E3,6.673253E1,1.5801879E3,2.611845E2,1.3544572E2,4.5291278E2,2.1970563E2,2.0347607E1,3.5839043E3,6.766378E1,4.5622705E2,1.9961103E1,3.0868055E1,1.278749E2,2.2809612E2,2.1938938E1,3.1758554E2,3.7978355E1,2.108118E1,8.709674E1,6.915312E1,5.11941E1,6.897737E1,6.0167465E1,4.355797E1,3.5179493E0,3.595223E3,2.6156826E1,4.0575703E1,4.9587103E2,1.0843168E3,2.225288E1,2.3893161E2,4.2601303E1,9.284442E1,2.4407532E2,2.0883746E2,8.0776886E1,1.3892874E2,3.2485065E0,1.70991E1,4.3185205E0,3.5795857E3,1.1165482E1,5.6498295E1,3.7479755E2,8.1429535E1,1.0017654E1,9.943449E0,4.427473E0,2.6440582E1,3.851058E1,8.936433E1,2.179408E2,1.015532E1,4.9495254E0,1.6989412E1,3.1631302E2,1.2725277E0,3.544376E1,2.534595E0,1.3702782E1,7.3783984E0,5.3944603E1,3.3152138E1,2.641666E1,4.273646E1,3.5099243E1,1.6094856E1,3.3977455E1,3.4999916E1,1.3916764E0,5.877579E1,1.6333895E1,2.7224075E1,2.4904032E0,1.0275462E0,1.6272882E2,3.4324941E3,1.0017356E1,1.6139471E1,1.5445915E1,2.5129787E1,4.4550876E2,5.0362255E1,4.612146E2,6.231022E2,8.962187E0,1.3290693E1,1.9534698E2,4.3584637E1,1.4437217E1,2.8164085E1,5.7279453E1,3.556497E1,2.1706572E2,2.7009586E1,1.2453513E2,8.430233E1,6.786143E1,1.29154625E1,1.1671199E2,2.2216747E1],"tree_param":{"num_deleted":"0","num_feature":"29","num_nodes":"127","size_leaf_vector":"1"}},{"base_weights":[3.2433457E-4,-1.3270408E0,1.0967922E0,-1.4095515E0,3.55279E-1,1.3529928E0,-3.3174357E-1,-1.1008292E0,-1.5442622E0,6.645076E-1,-7.9714435E-1,1.4754231E0,9.5678127E-1,1.6208531E-1,-8.907731E-1,-1.3562734E0,-1.3789007E-1,-1.5619735E0,-1.342821E0,-3.6528412E-2,9.886244E-1,4.279917E-1,-1.0602762E0,1.0487713E0,1.5151925E0,1.9189657E-1,1.0509455E0,-5.36696E-1,3.6133164E-1,-6.423634E-1,-1.2655146E0,-1.4871016E0,-7.235966E-1,-6.959044E-1,4.4341096E-1,-1.5675381E0,-1.0312419E0,-5.47167E-1,-1.4281951E0,-8.648956E-1,4.833468E-1,-5.6766105E-1,1.087113E0,1.1189898E0,-4.313263E-1,5.158697E-1,-1.2959623E0,-2.3069508E-1,1.2348369E0,1.1851028E0,1.5275539E0,-2.6875636E-1,8.3733016E-1,1.2008884E0,8.2632095E-1,-8.5372764E-1,-0E0,4.541693E-1,-5.229418E-1,3.087598E-1,-7.5048465E-1,-1.3627627E0,-4.7046182E-1,-7.771859E-2,-6.2753595E-2,-5.8847275E-2,6.2402026E-3,-5.5995494E-2,-4.2153892E-4,3.268669E-2,-4.913486E-3,-1.0108397E-2,-7.84011E-2,-5.834443E-2,1.1990178E-2,-4.4031303E-2,2.798891E-2,-7.240977E-2,-2.271023E-3,-6.933122E-2,3.1000346E-2,3.2272343E-2,-5.535856E-2,2.6495162E-2,-5.0873466E-2,2.7889583E-2,6.327229E-2,6.6621415E-2,1.6477332E-2,-6.5203786E-2,2.623499E-2,4.4575363E-2,-2.1206336E-2,-7.53233E-2,-4.086576E-3,-3.856222E-2,4.446701E-2,4.0769868E-2,6.624435E-2,9.5535545E-3,6.666039E-2,7.7921525E-2,7.1103044E-2,-4.231211E-2,2.3676013E-3,6.708928E-2,2.9043643E-2,6.860875E-2,5.1694434E-2,9.139473E-3,4.5347746E-2,-4.687373E-2,3.5349827E-2,2.368695E-2,-3.464372E-2,3.224467E-2,3.4947887E-3,-5.238692E-2,4.1088713E-3,-3.774098E-2,4.369959E-2,-4.888096E-2,-2.1156011E-2,-6.9347106E-2,5.5696345E-3,1.8448312E-3,-6.551815E-2],"categories":[],"categories_nodes":[],"categories_segments":[],"categories_sizes":[],"default_left":[0,0,0,0,0,0,0,0,0,0,0,1,1,1,0,0,0,0,0,0,0,0,0,0,0,1,0,0,0,0,0,0,0,0,0,0,0,0,0,0,0,0,0,0,0,0,1,0,1,0,0,1,0,0,0,1,0,0,0,0,0,1,0,0,0,0,0,0,0,0,0,0,0,0,0,0,0,0,0,0,0,0,0,0,0,0,0,0,0,0,0,0,0,0,0,0,0,0,0,0,0,0,0,0,0,0,0,0,0,0,0,0,0,0,0,0,0,0,0,0,0,0,0,0,0,0,0],"id":6,"left_children":[1,3,5,7,9,11,13,15,17,19,21,23,25,27,29,31,33,35,37,39,41,43,45,47,49,51,53,55,57,59,61,63,65,67,69,71,73,75,77,79,81,83,85,87,89,91,93,95,97,99,101,103,105,107,109,111,113,115,117,119,121,123,125,-1,-1,-1,-1,-1,-1,-1,-1,-1,-1,-1,-1,-1,-1,-1,-1,-1,-1,-1,-1,-1,-1,-1,-1,-1,-1,-1,-1,-1,-1,-1,-1,-1,-1,-1,-1,-1,-1,-1,-1,-1,-1,-1,-1,-1,-1,-1,-1,-1,-1,-1,-1,-1,-1,-1,-1,-1,-1,-1,-1,-1,-1,-1,-1],"loss_changes":[1.6584219E4,7.161221E2,2.2844194E3,2.0239551E2,8.6662186E1,2.5502734E2,2.623972E2,3.6777014E2,9.807617E0,4.357718E1,1.7128288E1,6.671094E1,8.9859985E1,7.048864E1,4.048575E1,9.658545E1,1.0249566E2,7.3842773E0,1.8302307E1,2.6863518E1,2.0731133E1,6.3441834E0,1.663554E1,8.322339E1,1.2989258E1,4.1488712E1,3.634424E1,1.9051258E1,3.2548645E1,2.8064049E1,1.2820374E1,1.3046631E1,7.898877E1,4.6857826E1,1.7753489E1,1.5551758E0,6.5180893E0,1.1318235E1,6.853943E0,1.9589497E1,1.0528291E1,4.7283773E0,1.0769791E1,3.6358643E-1,4.9386334E0,2.6225376E0,9.315472E0,2.7889767E1,1.0188324E1,1.9920135E1,9.069336E0,1.50049515E1,6.538803E0,1.73891E1,2.3057312E1,9.905155E0,1.4394176E1,2.6041115E1,1.2175841E1,1.7622288E1,1.751625E1,5.8641357E0,9.070286E0,0E0,0E0,0E0,0E0,0E0,0E0,0E0,0E0,0E0,0E0,0E0,0E0,0E0,0E0,0E0,0E0,0E0,0E0,0E0,0E0,0E0,0E0,0E0,0E0,0E0,0E0,0E0,0E0,0E0,0E0,0E0,0E0,0E0,0E0,0E0,0E0,0E0,0E0,0E0,0E0,0E0,0E0,0E0,0E0,0E0,0E0,0E0,0E0,0E0,0E0,0E0,0E0,0E0,0E0,0E0,0E0,0E0,0E0,0E0,0E0,0E0,0E0,0E0,0E0],"parents":[2147483647,0,0,1,1,2,2,3,3,4,4,5,5,6,6,7,7,8,8,9,9,10,10,11,11,12,12,13,13,14,14,15,15,16,16,17,17,18,18,19,19,20,20,21,21,22,22,23,23,24,24,25,25,26,26,27,27,28,28,29,29,30,30,31,31,32,32,33,33,34,34,35,35,36,36,37,37,38,38,39,39,40,40,41,41,42,42,43,43,44,44,45,45,46,46,47,47,48,48,49,49,50,50,51,51,52,52,53,53,54,54,55,55,56,56,57,57,58,58,59,59,60,60,61,61,62,62],"right_children":[2,4,6,8,10,12,14,16,18,20,22,24,26,28,30,32,34,36,38,40,42,44,46,48,50,52,54,56,58,60,62,64,66,68,70,72,74,76,78,80,82,84,86,88,90,92,94,96,98,100,102,104,106,108,110,112,114,116,118,120,122,124,126,-1,-1,-1,-1,-1,-1,-1,-1,-1,-1,-1,-1,-1,-1,-1,-1,-1,-1,-1,-1,-1,-1,-1,-1,-1,-1,-1,-1,-1,-1,-1,-1,-1,-1,-1,-1,-1,-1,-1,-1,-1,-1,-1,-1,-1,-1,-1,-1,-1,-1,-1,-1,-1,-1,-1,-1,-1,-1,-1,-1,-1,-1,-1,-1],"split_conditions":[2E1,1.1E1,2.2E0,2E-1,-2E-1,-5E-1,4E0,8E0,1.93E1,1.5E1,-5.714286E-1,2.6E1,2.5E1,3.3E1,5.7E0,1.5E1,5E0,1.9E1,8E-1,4E0,0E0,3.5E0,2.3333333E0,-2E0,1.8E1,0E0,1E0,8.779601E-1,8.81E1,4.1333332E1,7.7E0,2.7E0,1.6E0,1.97E1,9.096667E1,-1.7E1,2E0,1E1,1.974E3,2.2E1,2.2428572E0,-5.5E0,3.49E1,8.60961E-1,2.7E1,1.404E3,2.7E1,3.3E0,2.1E1,-9E0,-2.2E0,2.2E1,6.34E1,2.9E0,-4.7321387E-2,8.7E0,7.88E1,3.3E0,1.538E3,1.639E3,6.1E1,3.1E1,7.3E0,-7.771859E-2,-6.2753595E-2,-5.8847275E-2,6.2402026E-3,-5.5995494E-2,-4.2153892E-4,3.268669E-2,-4.913486E-3,-1.0108397E-2,-7.84011E-2,-5.834443E-2,1.1990178E-2,-4.4031303E-2,2.798891E-2,-7.240977E-2,-2.271023E-3,-6.933122E-2,3.1000346E-2,3.2272343E-2,-5.535856E-2,2.6495162E-2,-5.0873466E-2,2.7889583E-2,6.327229E-2,6.6621415E-2,1.6477332E-2,-6.5203786E-2,2.623499E-2,4.4575363E-2,-2.1206336E-2,-7.53233E-2,-4.086576E-3,-3.856222E-2,4.446701E-2,4.0769868E-2,6.624435E-2,9.5535545E-3,6.666039E-2,7.7921525E-2,7.1103044E-2,-4.231211E-2,2.3676013E-3,6.708928E-2,2.9043643E-2,6.860875E-2,5.1694434E-2,9.139473E-3,4.5347746E-2,-4.687373E-2,3.5349827E-2,2.368695E-2,-3.464372E-2,3.224467E-2,3.4947887E-3,-5.238692E-2,4.1088713E-3,-3.774098E-2,4.369959E-2,-4.888096E-2,-2.1156011E-2,-6.9347106E-2,5.5696345E-3,1.8448312E-3,-6.551815E-2],"split_indices":[16,14,1,1,1,1,1,24,24,14,7,16,16,16,1,16,16,16,1,16,16,8,22,14,17,14,1,27,2,19,3,24,24,24,19,14,14,18,25,24,7,1,13,27,14,25,18,24,16,14,1,16,2,11,27,8,2,1,25,25,17,21,1,0,0,0,0,0,0,0,0,0,0,0,0,0,0,0,0,0,0,0,0,0,0,0,0,0,0,0,0,0,0,0,0,0,0,0,0,0,0,0,0,0,0,0,0,0,0,0,0,0,0,0,0,0,0,0,0,0,0,0,0,0,0,0,0],"split_type":[0,0,0,0,0,0,0,0,0,0,0,0,0,0,0,0,0,0,0,0,0,0,0,0,0,0,0,0,0,0,0,0,0,0,0,0,0,0,0,0,0,0,0,0,0,0,0,0,0,0,0,0,0,0,0,0,0,0,0,0,0,0,0,0,0,0,0,0,0,0,0,0,0,0,0,0,0,0,0,0,0,0,0,0,0,0,0,0,0,0,0,0,0,0,0,0,0,0,0,0,0,0,0,0,0,0,0,0,0,0,0,0,0,0,0,0,0,0,0,0,0,0,0,0,0,0,0],"sum_hessian":[1.1392869E4,5.1536494E3,6.23922E3,4.9129126E3,2.407364E2,5.290516E3,9.487039E2,1.4955073E3,3.4174055E3,1.9020819E2,5.0528225E1,4.0393657E3,1.2511505E3,5.0400934E2,4.446946E2,1.1815569E3,3.1395047E2,3.134557E3,2.8284848E2,6.032003E1,1.2988815E2,8.755629E0,4.1772594E1,3.4696442E2,3.6924011E3,1.3759377E2,1.1135568E3,1.1133795E2,3.926714E2,2.6921658E2,1.7547803E2,9.778447E2,2.0371211E2,1.6017085E2,1.537796E2,3.0999126E3,3.464435E1,2.8240265E1,2.5460822E2,2.3077354E1,3.7242676E1,7.3867035E0,1.2250145E2,4.7501264E0,4.0055027E0,5.224016E0,3.654858E1,4.3952328E1,3.030121E2,1.3707326E2,3.555328E3,8.054009E1,5.7053665E1,6.649163E2,4.486404E2,6.9534836E1,4.180312E1,3.5590524E2,3.6766132E1,2.7196167E1,2.4202042E2,1.5560512E2,1.9872906E1,7.533132E2,2.2453156E2,1.325915E2,7.11206E1,9.859007E1,6.1580788E1,1.1075398E2,4.3025616E1,1.3198665E0,3.0985928E3,3.1448742E1,3.1956062E0,2.1929083E1,6.3111825E0,2.5086017E2,3.748045E0,1.7176E1,5.9013534E0,3.4394382E1,2.8482924E0,2.0308652E0,5.3558383E0,3.2052578E1,9.044887E1,3.098043E0,1.6520833E0,1.9583135E0,2.0471892E0,3.8453288E0,1.3786871E0,3.0873245E1,5.675333E0,2.9915337E1,1.4036989E1,5.5529408E1,2.4748268E2,1.8159306E1,1.18913956E2,2.738951E3,8.1637695E2,2.8009651E1,5.2530445E1,1.7671543E1,3.9382122E1,3.243868E2,3.4052954E2,5.045684E1,3.9818356E2,6.643349E1,3.1013489E0,2.4952272E1,1.6850847E1,2.3722594E2,1.1867931E2,1.9386642E1,1.737949E1,9.259854E0,1.7936314E1,1.4153069E2,1.0048973E2,1.5321898E2,2.386142E0,1.2910861E1,6.962045E0],"tree_param":{"num_deleted":"0","num_feature":"29","num_nodes":"127","size_leaf_vector":"1"}},{"base_weights":[2.0053554E-3,-1.3636577E0,1.1077627E0,-1.459165E0,-9.253614E-1,1.303825E0,-3.6487186E-1,-1.5095258E0,-1.1053033E0,-7.175023E-2,-1.347378E0,1.4218113E0,8.3478326E-1,-6.5821502E-3,-9.3933976E-1,-8.128164E-1,-1.5136392E0,-1.3477904E0,-5.5235463E-1,1.6756359E-1,-8.121608E-1,-1.4043579E0,-8.374966E-1,8.3385E-1,1.4507104E0,1.0011452E0,5.1579034E-1,-4.298152E-1,1.601544E-1,-1.1032306E0,-3.655373E-1,7.969291E-1,-1.3129154E0,-1.514482E0,2.4521537E-2,-1.4288346E0,-8.8569623E-1,-2.7356493E-1,-1.245859E0,-8.73163E-2,7.17717E-1,2.7322173E-1,-1.0547112E0,-6.395538E-1,-1.4278618E0,9.5151865E-1,-1.0044663E0,1.9826844E-1,9.957473E-1,1.5029426E0,1.3123751E0,4.5293784E-1,1.0650847E0,6.6364807E-1,9.548266E-2,-8.888883E-1,4.9946588E-2,2.1409348E-1,-1.5087138E0,-5.9732366E-1,-1.1859553E0,5.716125E-1,-6.961893E-1,6.3601226E-2,-2.2695687E-2,2.131524E-2,-7.348401E-2,-7.66032E-2,-7.168346E-2,-4.0567406E-2,-7.3440254E-2,5.9387453E-2,-4.8418593E-2,6.9900244E-3,-4.8280533E-2,-1.3631764E-2,-6.71243E-2,1.4678465E-2,-3.2205414E-2,6.263092E-2,8.680928E-3,-3.5689663E-2,4.5740407E-2,-6.353624E-3,-5.9658032E-2,-4.5715075E-2,6.878593E-2,-3.0915841E-2,-7.21928E-2,-1.8192312E-2,7.692234E-2,-5.416764E-2,3.1554118E-2,-5.240307E-2,3.3813883E-2,5.9429813E-2,3.2185238E-2,6.693268E-2,7.580772E-2,3.2202903E-2,6.6841096E-2,-3.3334058E-2,3.454706E-2,6.374606E-2,4.5507457E-2,5.4357843E-3,3.808735E-2,1.5228373E-2,-3.190924E-2,3.4801915E-2,-4.6827573E-2,3.880747E-2,-1.1138665E-2,-1.2750653E-2,2.0288277E-2,-2.6670674E-2,-8.729582E-2,3.3900052E-2,-4.3958586E-2,-6.154089E-2,-3.1075645E-3,5.082217E-2,-2.3017995E-2,-0E0,-4.8023272E-2],"categories":[],"categories_nodes":[],"categories_segments":[],"categories_sizes":[],"default_left":[0,1,0,0,0,0,0,0,1,0,0,0,0,0,0,0,1,0,0,0,0,0,0,0,0,0,0,0,0,0,1,0,0,1,0,0,0,0,0,0,0,0,0,0,0,0,0,0,0,1,0,0,0,0,0,0,0,0,0,0,0,0,0,0,0,0,0,0,0,0,0,0,0,0,0,0,0,0,0,0,0,0,0,0,0,0,0,0,0,0,0,0,0,0,0,0,0,0,0,0,0,0,0,0,0,0,0,0,0,0,0,0,0,0,0,0,0,0,0,0,0,0,0,0,0],"id":7,"left_children":[1,3,5,7,9,11,13,15,17,19,21,23,25,27,29,31,33,35,37,39,41,43,45,47,49,51,53,55,57,59,61,63,65,67,-1,69,71,73,75,77,79,81,83,85,87,89,91,93,95,97,99,101,103,105,107,109,111,113,115,117,119,121,123,-1,-1,-1,-1,-1,-1,-1,-1,-1,-1,-1,-1,-1,-1,-1,-1,-1,-1,-1,-1,-1,-1,-1,-1,-1,-1,-1,-1,-1,-1,-1,-1,-1,-1,-1,-1,-1,-1,-1,-1,-1,-1,-1,-1,-1,-1,-1,-1,-1,-1,-1,-1,-1,-1,-1,-1,-1,-1,-1,-1,-1,-1],"loss_changes":[1.6994295E4,2.091836E2,1.7960859E3,7.171094E1,3.2534375E2,3.023125E2,1.5043704E2,8.895508E0,6.862982E1,5.338222E1,1.616687E1,7.304785E1,5.8008728E1,3.196168E1,2.585881E1,2.0029955E1,6.913086E0,1.1978882E1,3.0438099E1,3.2033684E1,1.9738796E1,8.627197E0,1.9909225E1,2.107396E1,2.7925781E1,2.4793518E1,2.3554245E1,2.833304E1,2.9404102E1,8.228546E0,2.0248562E1,4.313472E0,5.738861E0,2.609375E0,0E0,6.0914917E0,1.0814953E1,3.3256287E1,3.7501144E0,3.3365864E1,2.0675415E1,9.63984E0,7.4770737E0,1.1236252E1,5.7003174E0,5.2146177E0,8.283943E0,2.6632504E1,1.0274414E1,4.2495117E0,1.7782104E1,2.116137E1,1.971289E1,1.5165199E1,1.5587001E1,5.631588E0,1.2796383E1,2.8466263E1,1.2064781E0,1.2403981E1,9.17218E0,8.404263E0,8.760944E0,0E0,0E0,0E0,0E0,0E0,0E0,0E0,0E0,0E0,0E0,0E0,0E0,0E0,0E0,0E0,0E0,0E0,0E0,0E0,0E0,0E0,0E0,0E0,0E0,0E0,0E0,0E0,0E0,0E0,0E0,0E0,0E0,0E0,0E0,0E0,0E0,0E0,0E0,0E0,0E0,0E0,0E0,0E0,0E0,0E0,0E0,0E0,0E0,0E0,0E0,0E0,0E0,0E0,0E0,0E0,0E0,0E0,0E0,0E0,0E0,0E0,0E0],"parents":[2147483647,0,0,1,1,2,2,3,3,4,4,5,5,6,6,7,7,8,8,9,9,10,10,11,11,12,12,13,13,14,14,15,15,16,16,17,17,18,18,19,19,20,20,21,21,22,22,23,23,24,24,25,25,26,26,27,27,28,28,29,29,30,30,31,31,32,32,33,33,35,35,36,36,37,37,38,38,39,39,40,40,41,41,42,42,43,43,44,44,45,45,46,46,47,47,48,48,49,49,50,50,51,51,52,52,53,53,54,54,55,55,56,56,57,57,58,58,59,59,60,60,61,61,62,62],"right_children":[2,4,6,8,10,12,14,16,18,20,22,24,26,28,30,32,34,36,38,40,42,44,46,48,50,52,54,56,58,60,62,64,66,68,-1,70,72,74,76,78,80,82,84,86,88,90,92,94,96,98,100,102,104,106,108,110,112,114,116,118,120,122,124,-1,-1,-1,-1,-1,-1,-1,-1,-1,-1,-1,-1,-1,-1,-1,-1,-1,-1,-1,-1,-1,-1,-1,-1,-1,-1,-1,-1,-1,-1,-1,-1,-1,-1,-1,-1,-1,-1,-1,-1,-1,-1,-1,-1,-1,-1,-1,-1,-1,-1,-1,-1,-1,-1,-1,-1,-1,-1,-1,-1,-1,-1],"split_conditions":[2E1,1E1,2.6E0,1.3E1,3E-1,0E0,4.6E0,-1.7E1,2.3E0,1.5E1,1.2E1,2.3E1,3.6E0,3.6E1,7.611043E-1,-5E-1,3.2E2,1.9E1,2E-1,2.56E1,-1.8285714E0,3.3333335E-2,6.6433334E1,1.1E1,-2.2E0,2.5E1,1.7E0,6.648554E-1,7E0,2E-1,3.5E0,4.2E0,4.7E0,3.2E0,2.4521537E-2,-7.1E0,-6.8E0,3E0,-1.4E0,8.853333E1,1.84E1,2E0,1.32E1,1.5E1,5E-1,5E0,4.3E1,4E0,-2.5E0,2E1,8E0,3.4157076E-1,1E0,2.2E1,5.91E1,-2E0,6.05E1,1.07381344E-1,-1.2020805E-1,5.2166668E1,1.53E1,6.3E1,-9.4285715E-1,6.3601226E-2,-2.2695687E-2,2.131524E-2,-7.348401E-2,-7.66032E-2,-7.168346E-2,-4.0567406E-2,-7.3440254E-2,5.9387453E-2,-4.8418593E-2,6.9900244E-3,-4.8280533E-2,-1.3631764E-2,-6.71243E-2,1.4678465E-2,-3.2205414E-2,6.263092E-2,8.680928E-3,-3.5689663E-2,4.5740407E-2,-6.353624E-3,-5.9658032E-2,-4.5715075E-2,6.878593E-2,-3.0915841E-2,-7.21928E-2,-1.8192312E-2,7.692234E-2,-5.416764E-2,3.1554118E-2,-5.240307E-2,3.3813883E-2,5.9429813E-2,3.2185238E-2,6.693268E-2,7.580772E-2,3.2202903E-2,6.6841096E-2,-3.3334058E-2,3.454706E-2,6.374606E-2,4.5507457E-2,5.4357843E-3,3.808735E-2,1.5228373E-2,-3.190924E-2,3.4801915E-2,-4.6827573E-2,3.880747E-2,-1.1138665E-2,-1.2750653E-2,2.0288277E-2,-2.6670674E-2,-8.729582E-2,3.3900052E-2,-4.3958586E-2,-6.154089E-2,-3.1075645E-3,5.082217E-2,-2.3017995E-2,-0E0,-4.8023272E-2],"split_indices":[0,24,1,0,1,1,1,14,24,5,0,0,24,0,27,10,17,0,1,24,7,6,19,17,1,0,1,27,14,8,8,3,21,24,0,10,10,14,6,19,21,18,11,23,1,23,17,24,1,17,17,27,1,17,12,6,19,27,26,19,11,19,7,0,0,0,0,0,0,0,0,0,0,0,0,0,0,0,0,0,0,0,0,0,0,0,0,0,0,0,0,0,0,0,0,0,0,0,0,0,0,0,0,0,0,0,0,0,0,0,0,0,0,0,0,0,0,0,0,0,0,0,0,0,0],"split_type":[0,0,0,0,0,0,0,0,0,0,0,0,0,0,0,0,0,0,0,0,0,0,0,0,0,0,0,0,0,0,0,0,0,0,0,0,0,0,0,0,0,0,0,0,0,0,0,0,0,0,0,0,0,0,0,0,0,0,0,0,0,0,0,0,0,0,0,0,0,0,0,0,0,0,0,0,0,0,0,0,0,0,0,0,0,0,0,0,0,0,0,0,0,0,0,0,0,0,0,0,0,0,0,0,0,0,0,0,0,0,0,0,0,0,0,0,0,0,0,0,0,0,0,0,0],"sum_hessian":[1.1251831E4,5.034124E3,6.217707E3,4.1313267E3,9.027974E2,5.4873228E3,7.303841E2,3.613511E3,5.178157E2,2.9913846E2,6.03659E2,4.382637E3,1.1046858E3,4.5056E2,2.798241E2,2.251714E1,3.590994E3,3.5883557E2,1.5898013E2,2.2655159E2,7.258686E1,5.4122595E2,6.2433014E1,2.068815E2,4.1757554E3,7.244283E2,3.8025757E2,1.2706034E2,3.2349966E2,2.168033E2,6.3020798E1,5.149181E0,1.736796E1,3.5897783E3,1.2155699E0,3.0332803E2,5.550753E1,1.1449261E2,4.4487522E1,1.5527428E2,7.1277306E1,1.3159778E1,5.9427082E1,1.7104977E1,5.24121E2,4.8772726E0,5.755574E1,4.257632E1,1.6430518E2,3.0235486E3,1.1522069E3,7.667504E1,6.4775323E2,2.8069614E2,9.9561424E1,6.460089E1,6.245945E1,3.142737E2,9.225929E0,3.1794147E1,1.8500916E2,1.6167347E1,4.685345E1,3.7774436E0,1.3717371E0,1.2411187E0,1.612684E1,2.9325674E3,6.5721075E2,1.9888012E1,2.8344003E2,1.5695059E0,5.3938026E1,7.208753E1,4.240507E1,4.4566584E0,4.003086E1,9.237578E1,6.28985E1,3.5193104E1,3.60842E1,5.0785465E0,8.081231E0,8.060467E0,5.1366615E1,1.5577224E1,1.5277519E0,1.1043959E1,5.13077E2,1.5695219E0,3.3077507E0,5.528783E1,2.267908E0,1.1414125E1,3.1162197E1,1.0443521E2,5.986996E1,2.3322986E2,2.7903188E3,4.176934E1,1.1104376E3,1.3052408E1,6.362263E1,2.7178635E2,3.759669E2,4.2636234E1,2.380599E2,7.8041794E1,2.151963E1,1.427614E0,6.317328E1,1.664844E1,4.5811012E1,9.0914185E1,2.2335954E2,2.5229049E0,6.703024E0,5.436113E0,2.6358034E1,1.7772992E2,7.279233E0,1.1375777E1,4.7915697E0,1.3214159E1,3.363929E1],"tree_param":{"num_deleted":"0","num_feature":"29","num_nodes":"125","size_leaf_vector":"1"}},{"base_weights":[-4.5935725E-4,-1.3274316E0,1.0698708E0,-1.3893008E0,-7.233325E-1,1.2836468E0,-2.1675892E-1,-1.4724673E0,-1.1765751E0,-2.0792456E-1,-1.2024413E0,1.3741627E0,8.505625E-1,2.3959978E-1,-6.991217E-1,-7.443392E-2,-1.3755307E0,-7.1467805E-1,-1.4146215E0,8.640271E-2,-1.2459698E0,-1.3631359E0,-1.0187708E0,6.007429E-1,1.3989878E0,-2.4863154E-1,8.975433E-1,4.448838E-1,-2.3525733E-1,-4.8610395E-1,-1.1178508E0,-3.8759297E-1,-1.4173068E0,-3.779912E-1,-1.1340386E0,-1.4180483E0,7.25597E-3,-6.6781276E-1,3.220291E-1,2.9561063E-2,-1.2986468E0,-1.766228E-1,-1.3841901E0,-1.1755158E0,-5.333551E-1,8.9288455E-1,2.0166212E-1,1.473614E0,1.2844702E0,-9.1721964E-1,1.1942415E-1,1.0713543E0,6.929949E-1,-2.1109495E-1,5.9996766E-1,-1.4125322E0,-1.3762881E-1,-1.1616011E0,-3.3377096E-1,-1.2205962E0,1.5827972E-1,-4.0388953E-2,2.1247013E-2,-7.3443644E-2,-5.256627E-2,-3.4919474E-2,6.1524063E-3,1.2036839E-2,-5.9250653E-2,-7.106223E-2,-9.144745E-3,-5.838194E-2,-7.6095397E-3,6.8729334E-3,4.1730534E-2,-3.663916E-2,-7.05905E-2,-4.1947685E-2,2.5686486E-2,-7.0691876E-2,-2.8688012E-2,-6.469551E-2,-2.5506118E-2,-3.7419777E-2,5.5873048E-2,6.0545816E-3,5.0935753E-2,4.9033802E-2,-1.1626065E-2,5.7455428E-2,7.401637E-2,-6.290644E-2,6.448097E-2,-6.1990317E-2,2.161139E-2,-2.9950172E-2,3.1533834E-2,-3.2956064E-2,5.485754E-2,1.6683677E-2,4.074849E-2,8.296199E-3,-3.9142657E-2,-7.015192E-3,3.779343E-2,-8.270776E-2,-1.2928895E-2,2.5695881E-3,-3.804593E-2,-6.9992594E-2,-9.169749E-3,-4.783094E-3,-3.9776262E-2,-6.3710205E-2,-7.4472087E-3,4.1961763E-2,-3.9824765E-2],"categories":[],"categories_nodes":[],"categories_segments":[],"categories_sizes":[],"default_left":[0,0,0,0,0,0,0,0,0,0,0,0,0,0,0,0,0,0,0,0,0,0,0,0,0,1,1,0,0,0,0,0,0,0,0,0,0,0,0,0,0,0,0,1,0,0,0,1,0,0,0,0,0,0,0,0,0,0,0,0,0,0,0,0,0,0,0,0,0,0,0,0,0,0,0,0,0,0,0,0,0,0,0,0,0,0,0,0,0,0,0,0,0,0,0,0,0,0,0,0,0,0,0,0,0,0,0,0,0,0,0,0,0,0,0,0,0],"id":8,"left_children":[1,3,5,7,9,11,13,15,17,19,21,23,25,27,29,-1,31,33,35,37,39,41,43,45,47,49,51,53,55,57,59,61,63,65,67,69,-1,71,73,-1,75,77,79,81,83,85,87,89,91,93,95,97,99,101,103,105,107,109,111,113,115,-1,-1,-1,-1,-1,-1,-1,-1,-1,-1,-1,-1,-1,-1,-1,-1,-1,-1,-1,-1,-1,-1,-1,-1,-1,-1,-1,-1,-1,-1,-1,-1,-1,-1,-1,-1,-1,-1,-1,-1,-1,-1,-1,-1,-1,-1,-1,-1,-1,-1,-1,-1,-1,-1,-1,-1],"loss_changes":[1.5687059E4,1.830918E2,1.681936E3,7.7118164E1,1.132883E2,2.041289E2,1.9213374E2,2.7114258E0,1.3756287E2,6.838245E1,5.405609E0,8.218506E1,4.7237E1,4.385911E1,3.7134354E1,0E0,1.8835144E1,6.033702E1,4.7788086E0,3.1221014E1,5.6213837E0,2.6929932E0,7.9852295E0,1.5646046E1,3.3714844E1,9.530626E0,3.00896E1,3.2080856E1,1.5272342E1,2.8593788E1,1.893254E1,7.4508533E0,6.778076E0,3.882258E1,1.3799759E1,2.8569336E0,0E0,1.0463762E1,1.2452581E1,0E0,1.8508682E0,2.01273E0,1.9080658E0,5.956009E0,1.1507008E1,7.3840446E0,2.0327906E1,3.5585938E0,2.3424072E1,6.575857E0,9.663051E0,2.1721985E1,1.7309204E1,1.32554245E1,2.949504E1,2.23106E0,1.5036664E1,1.1603867E1,2.5400806E1,7.234421E0,8.085787E0,0E0,0E0,0E0,0E0,0E0,0E0,0E0,0E0,0E0,0E0,0E0,0E0,0E0,0E0,0E0,0E0,0E0,0E0,0E0,0E0,0E0,0E0,0E0,0E0,0E0,0E0,0E0,0E0,0E0,0E0,0E0,0E0,0E0,0E0,0E0,0E0,0E0,0E0,0E0,0E0,0E0,0E0,0E0,0E0,0E0,0E0,0E0,0E0,0E0,0E0,0E0,0E0,0E0,0E0,0E0,0E0],"parents":[2147483647,0,0,1,1,2,2,3,3,4,4,5,5,6,6,7,7,8,8,9,9,10,10,11,11,12,12,13,13,14,14,16,16,17,17,18,18,19,19,20,20,21,21,22,22,23,23,24,24,25,25,26,26,27,27,28,28,29,29,30,30,31,31,32,32,33,33,34,34,35,35,37,37,38,38,40,40,41,41,42,42,43,43,44,44,45,45,46,46,47,47,48,48,49,49,50,50,51,51,52,52,53,53,54,54,55,55,56,56,57,57,58,58,59,59,60,60],"right_children":[2,4,6,8,10,12,14,16,18,20,22,24,26,28,30,-1,32,34,36,38,40,42,44,46,48,50,52,54,56,58,60,62,64,66,68,70,-1,72,74,-1,76,78,80,82,84,86,88,90,92,94,96,98,100,102,104,106,108,110,112,114,116,-1,-1,-1,-1,-1,-1,-1,-1,-1,-1,-1,-1,-1,-1,-1,-1,-1,-1,-1,-1,-1,-1,-1,-1,-1,-1,-1,-1,-1,-1,-1,-1,-1,-1,-1,-1,-1,-1,-1,-1,-1,-1,-1,-1,-1,-1,-1,-1,-1,-1,-1,-1,-1,-1,-1,-1],"split_conditions":[2E1,1.5E1,2.2E0,8.2E0,7.9E1,1E-1,3.8E0,4.1E0,6E-1,1E0,9E-1,2.2E1,2.1E1,7.55E1,5.8E0,-7.443392E-2,-4.9666667E0,3E0,5.79E1,2.7E0,-4.132786E-1,-1.1433333E1,2.1E1,1.05E2,-3.1E0,2.89E1,2.9E0,9.025161E-2,2.6E1,7.1E0,2.13E1,3.53E1,1E1,2.42E1,-4.6857142E0,1.001E3,7.25597E-3,1.8E1,1.9E1,2.9561063E-2,1.9E0,-1.2133333E1,9.994074E-1,2.29E1,9.8522013E-1,4.7E0,3.5E0,1.6E1,-4.5973274E-1,9.562348E-1,-7E-1,2.1E1,3.7E1,3.2E0,3.3E1,1.03E2,4.41E1,5.6E0,6.75E1,9.999167E-1,9E0,-4.0388953E-2,2.1247013E-2,-7.3443644E-2,-5.256627E-2,-3.4919474E-2,6.1524063E-3,1.2036839E-2,-5.9250653E-2,-7.106223E-2,-9.144745E-3,-5.838194E-2,-7.6095397E-3,6.8729334E-3,4.1730534E-2,-3.663916E-2,-7.05905E-2,-4.1947685E-2,2.5686486E-2,-7.0691876E-2,-2.8688012E-2,-6.469551E-2,-2.5506118E-2,-3.7419777E-2,5.5873048E-2,6.0545816E-3,5.0935753E-2,4.9033802E-2,-1.1626065E-2,5.7455428E-2,7.401637E-2,-6.290644E-2,6.448097E-2,-6.1990317E-2,2.161139E-2,-2.9950172E-2,3.1533834E-2,-3.2956064E-2,5.485754E-2,1.6683677E-2,4.074849E-2,8.296199E-3,-3.9142657E-2,-7.015192E-3,3.779343E-2,-8.270776E-2,-1.2928895E-2,2.5695881E-3,-3.804593E-2,-6.9992594E-2,-9.169749E-3,-4.783094E-3,-3.9776262E-2,-6.3710205E-2,-7.4472087E-3,4.1961763E-2,-3.9824765E-2],"split_indices":[0,0,1,11,5,1,1,11,1,1,11,0,16,2,1,0,6,5,4,11,27,6,16,5,1,13,11,27,16,4,4,13,16,11,7,23,0,0,17,0,10,6,27,21,27,4,12,16,27,26,8,0,16,1,16,5,12,10,2,26,3,0,0,0,0,0,0,0,0,0,0,0,0,0,0,0,0,0,0,0,0,0,0,0,0,0,0,0,0,0,0,0,0,0,0,0,0,0,0,0,0,0,0,0,0,0,0,0,0,0,0,0,0,0,0,0,0],"split_type":[0,0,0,0,0,0,0,0,0,0,0,0,0,0,0,0,0,0,0,0,0,0,0,0,0,0,0,0,0,0,0,0,0,0,0,0,0,0,0,0,0,0,0,0,0,0,0,0,0,0,0,0,0,0,0,0,0,0,0,0,0,0,0,0,0,0,0,0,0,0,0,0,0,0,0,0,0,0,0,0,0,0,0,0,0,0,0,0,0,0,0,0,0,0,0,0,0,0,0,0,0,0,0,0,0,0,0,0,0,0,0,0,0,0,0,0,0],"sum_hessian":[1.1042886E4,4.9302817E3,6.112604E3,4.4709233E3,4.593586E2,5.241756E3,8.70848E2,3.2096843E3,1.261239E3,2.2208757E2,2.3727104E2,4.3336143E3,9.081416E2,4.47638E2,4.2321E2,2.7366362E3,4.7304816E2,4.3044354E2,8.307955E2,1.7366658E2,4.8420982E1,1.22835434E2,1.1443561E2,1.3568253E2,4.1979316E3,3.6960815E1,8.711808E2,3.127205E2,1.3491751E2,2.8209903E2,1.4111096E2,1.970591E1,4.5334225E2,2.3994313E2,1.9050041E2,8.2912885E2,1.6666319E0,4.0802727E1,1.3286386E2,1.0117797E0,4.7409203E1,2.388168E0,1.20447266E2,8.527267E1,2.9162945E1,7.747793E1,5.82046E1,2.533934E3,1.6639976E3,1.2689484E1,2.4271332E1,4.6842188E2,4.0275888E2,5.9603157E1,2.5311734E2,9.221792E0,1.25695724E2,5.0570423E1,2.3152861E2,1.3070903E2,1.0401923E1,1.307391E1,6.632001E0,3.9447488E2,5.8867386E1,1.4623581E2,9.370731E1,6.6076756E0,1.8389273E2,8.267578E2,2.3710365E0,1.9978146E1,2.0824581E1,9.8764114E1,3.409974E1,9.294068E0,3.811513E1,1.1828908E0,1.2052774E0,1.15359215E2,5.088046E0,7.1462395E1,1.381027E1,2.6339153E1,2.8237932E0,1.1247486E1,6.6230446E1,2.0462442E1,3.7742157E1,5.515165E1,2.4787825E3,2.831952E0,1.6611656E3,1.0366673E1,2.32281E0,9.93838E0,1.43329525E1,6.462719E0,4.6195917E2,1.032256E2,2.995333E2,3.6240784E1,2.3362373E1,4.3938904E1,2.0917844E2,7.195105E0,2.0266874E0,9.702789E1,2.8667835E1,4.0237057E1,1.0333366E1,1.5369678E2,7.783183E1,1.24213135E2,6.4959016E0,6.2033663E0,4.1985564E0],"tree_param":{"num_deleted":"0","num_feature":"29","num_nodes":"117","size_leaf_vector":"1"}},{"base_weights":[1.4933696E-3,-1.1051131E0,9.319446E-1,-1.3102195E0,2.1372014E-1,1.2333394E0,-2.8512332E-1,-1.0334324E0,-1.4281288E0,-2.660896E-1,7.7736807E-1,1.3404381E0,8.6954916E-1,1.3094798E-1,-8.6696386E-1,-1.2326144E0,-2.2906487E-1,-1.4458382E0,-1.2188071E0,-8.3396703E-1,7.720658E-1,1.0383254E0,-1.08769864E-1,9.4002765E-1,1.3843217E0,1.5723945E-1,9.8374593E-1,-5.347043E-1,3.2815373E-1,-1.0737013E0,-5.0279856E-1,-1.3336803E0,-2.1772364E-1,-5.9144884E-1,4.3494278E-1,-8.00137E-1,-1.4480121E0,-5.79005E-1,-1.2908932E0,-1.0772021E0,4.417908E-1,9.044104E-1,-1.1214685E0,1.117202E0,3.3805225E-2,2.942657E-1,-8.219671E-1,-5.3089327E-1,1.1935464E0,1.4427285E0,1.2906411E0,-6.561311E-1,6.452205E-1,-1.3674619E0,9.9439234E-1,-1.295759E0,-2.2040384E-1,-1.2623018E-1,4.7085682E-1,-8.635919E-1,-1.3652139E0,-1.1616956E0,-2.348603E-1,-6.961032E-2,-4.9580194E-2,-5.4791506E-2,4.4697087E-2,-4.6685357E-2,1.4967947E-2,3.8137276E-2,-6.8482384E-3,-6.1047312E-2,3.98502E-2,-7.26048E-2,-6.112815E-2,1.7616956E-2,-5.4382276E-2,-6.544244E-2,5.97444E-3,-3.963514E-2,-6.811955E-2,5.398434E-2,-3.687508E-2,1.9110763E-2,5.5814456E-2,-7.849163E-2,1.39854625E-2,3.3257004E-2,6.2129665E-2,-4.4776347E-2,4.3740902E-2,-8.310701E-3,4.8950043E-2,-5.095261E-2,8.603959E-3,-8.553862E-3,-6.0595896E-2,4.3232754E-2,6.482001E-2,6.145466E-2,7.260604E-2,-3.1615116E-2,6.475123E-2,-6.504135E-2,-1.4841922E-2,3.6992274E-2,-3.3257045E-2,-1.3734974E-2,-8.052732E-2,5.9957564E-2,4.3580066E-2,-6.7401715E-2,4.454267E-5,-7.314003E-4,-5.535701E-2,-1.258228E-2,3.1306747E-2,2.7903466E-2,-1.6722796E-2,-4.983989E-2,-1.581203E-2,-7.0331745E-2,-1.7225174E-2,-7.17157E-2,-7.97557E-3,-4.547187E-3,-7.0294775E-2],"categories":[],"categories_nodes":[],"categories_segments":[],"categories_sizes":[],"default_left":[0,0,0,0,0,0,0,0,0,0,0,1,1,1,0,0,0,0,0,0,0,0,0,0,0,0,0,1,0,0,0,0,0,0,0,0,1,0,0,0,0,0,0,1,0,0,0,0,0,1,0,0,0,0,1,1,0,0,0,0,0,0,0,0,0,0,0,0,0,0,0,0,0,0,0,0,0,0,0,0,0,0,0,0,0,0,0,0,0,0,0,0,0,0,0,0,0,0,0,0,0,0,0,0,0,0,0,0,0,0,0,0,0,0,0,0,0,0,0,0,0,0,0,0,0,0,0],"id":9,"left_children":[1,3,5,7,9,11,13,15,17,19,21,23,25,27,29,31,33,35,37,39,41,43,45,47,49,51,53,55,57,59,61,63,65,67,69,71,73,75,77,79,81,83,85,87,89,91,93,95,97,99,101,103,105,107,109,111,113,115,117,119,121,123,125,-1,-1,-1,-1,-1,-1,-1,-1,-1,-1,-1,-1,-1,-1,-1,-1,-1,-1,-1,-1,-1,-1,-1,-1,-1,-1,-1,-1,-1,-1,-1,-1,-1,-1,-1,-1,-1,-1,-1,-1,-1,-1,-1,-1,-1,-1,-1,-1,-1,-1,-1,-1,-1,-1,-1,-1,-1,-1,-1,-1,-1,-1,-1,-1],"loss_changes":[1.1152269E4,1.3386235E3,2.1587935E3,1.3801123E2,1.8054692E2,1.8236865E2,2.8309915E2,2.0511707E2,9.091309E0,2.1332901E2,7.11725E1,6.24541E1,8.7235596E1,8.970119E1,3.600357E1,1.0499426E2,6.18637E1,2.4907227E0,1.0171295E1,7.306979E1,3.3072998E1,1.8645706E1,2.0597878E1,1.3607498E2,1.5809082E1,5.99364E1,2.452185E1,3.69186E1,3.4264465E1,1.7579315E1,3.1115719E1,1.7091919E1,9.3131996E1,5.098794E1,1.7198944E1,8.845356E0,4.8779297E-1,1.2933061E1,5.731659E0,1.4661102E1,2.9470196E1,1.2728752E1,6.07141E0,1.1445374E1,1.5160035E1,1.4677782E1,5.325695E0,1.2887863E1,9.150299E0,1.9824219E0,1.158667E1,1.2575024E1,1.2191963E1,5.793762E-1,2.1960266E1,3.2096405E0,2.0275864E1,1.2062954E1,2.840155E1,1.2897247E1,4.7470703E0,1.3618393E1,2.1348375E1,0E0,0E0,0E0,0E0,0E0,0E0,0E0,0E0,0E0,0E0,0E0,0E0,0E0,0E0,0E0,0E0,0E0,0E0,0E0,0E0,0E0,0E0,0E0,0E0,0E0,0E0,0E0,0E0,0E0,0E0,0E0,0E0,0E0,0E0,0E0,0E0,0E0,0E0,0E0,0E0,0E0,0E0,0E0,0E0,0E0,0E0,0E0,0E0,0E0,0E0,0E0,0E0,0E0,0E0,0E0,0E0,0E0,0E0,0E0,0E0,0E0,0E0,0E0,0E0],"parents":[2147483647,0,0,1,1,2,2,3,3,4,4,5,5,6,6,7,7,8,8,9,9,10,10,11,11,12,12,13,13,14,14,15,15,16,16,17,17,18,18,19,19,20,20,21,21,22,22,23,23,24,24,25,25,26,26,27,27,28,28,29,29,30,30,31,31,32,32,33,33,34,34,35,35,36,36,37,37,38,38,39,39,40,40,41,41,42,42,43,43,44,44,45,45,46,46,47,47,48,48,49,49,50,50,51,51,52,52,53,53,54,54,55,55,56,56,57,57,58,58,59,59,60,60,61,61,62,62],"right_children":[2,4,6,8,10,12,14,16,18,20,22,24,26,28,30,32,34,36,38,40,42,44,46,48,50,52,54,56,58,60,62,64,66,68,70,72,74,76,78,80,82,84,86,88,90,92,94,96,98,100,102,104,106,108,110,112,114,116,118,120,122,124,126,-1,-1,-1,-1,-1,-1,-1,-1,-1,-1,-1,-1,-1,-1,-1,-1,-1,-1,-1,-1,-1,-1,-1,-1,-1,-1,-1,-1,-1,-1,-1,-1,-1,-1,-1,-1,-1,-1,-1,-1,-1,-1,-1,-1,-1,-1,-1,-1,-1,-1,-1,-1,-1,-1,-1,-1,-1,-1,-1,-1,-1,-1,-1,-1],"split_conditions":[2E1,8E0,1.8E0,3E-1,1.8E1,-5E-1,4E0,7.3E0,1.93E1,8E0,-7E-1,2.7E1,2.8E1,3.4E1,1.33E1,1.7E1,9E0,-4.4142857E0,1E0,2.51E1,2E0,2.5714285E0,2.3714285E0,-3E0,-3.4E0,-3E0,-4.5973274E-1,-9E0,9.025161E-2,5.9E0,3.5E1,1.3E1,1E0,2.3E1,3.47E1,1.8E1,3.2E1,9.27E1,1.974E3,5.9E1,-5E-1,1.1E1,1.6E1,3.58E1,9.09E1,7.3E1,8.0392796E-1,1.98E2,0E0,1.4E1,-4.5973274E-1,6.118864E-1,9.59E1,-3.4E0,6.1E0,1E0,8.62E1,2.286E3,9.03E1,8.429415E-1,9.999167E-1,1.709E3,8.24E1,-6.961032E-2,-4.9580194E-2,-5.4791506E-2,4.4697087E-2,-4.6685357E-2,1.4967947E-2,3.8137276E-2,-6.8482384E-3,-6.1047312E-2,3.98502E-2,-7.26048E-2,-6.112815E-2,1.7616956E-2,-5.4382276E-2,-6.544244E-2,5.97444E-3,-3.963514E-2,-6.811955E-2,5.398434E-2,-3.687508E-2,1.9110763E-2,5.5814456E-2,-7.849163E-2,1.39854625E-2,3.3257004E-2,6.2129665E-2,-4.4776347E-2,4.3740902E-2,-8.310701E-3,4.8950043E-2,-5.095261E-2,8.603959E-3,-8.553862E-3,-6.0595896E-2,4.3232754E-2,6.482001E-2,6.145466E-2,7.260604E-2,-3.1615116E-2,6.475123E-2,-6.504135E-2,-1.4841922E-2,3.6992274E-2,-3.3257045E-2,-1.3734974E-2,-8.052732E-2,5.9957564E-2,4.3580066E-2,-6.7401715E-2,4.454267E-5,-7.314003E-4,-5.535701E-2,-1.258228E-2,3.1306747E-2,2.7903466E-2,-1.6722796E-2,-4.983989E-2,-1.581203E-2,-7.0331745E-2,-1.7225174E-2,-7.17157E-2,-7.97557E-3,-4.547187E-3,-7.0294775E-2],"split_indices":[17,15,1,1,15,1,1,24,24,17,1,17,17,17,4,17,17,7,1,24,1,7,7,15,1,15,27,15,27,1,17,17,15,24,12,17,18,2,25,5,1,17,15,13,2,13,27,5,15,18,27,27,2,8,12,14,2,25,2,27,26,25,19,0,0,0,0,0,0,0,0,0,0,0,0,0,0,0,0,0,0,0,0,0,0,0,0,0,0,0,0,0,0,0,0,0,0,0,0,0,0,0,0,0,0,0,0,0,0,0,0,0,0,0,0,0,0,0,0,0,0,0,0,0,0,0,0],"split_type":[0,0,0,0,0,0,0,0,0,0,0,0,0,0,0,0,0,0,0,0,0,0,0,0,0,0,0,0,0,0,0,0,0,0,0,0,0,0,0,0,0,0,0,0,0,0,0,0,0,0,0,0,0,0,0,0,0,0,0,0,0,0,0,0,0,0,0,0,0,0,0,0,0,0,0,0,0,0,0,0,0,0,0,0,0,0,0,0,0,0,0,0,0,0,0,0,0,0,0,0,0,0,0,0,0,0,0,0,0,0,0,0,0,0,0,0,0,0,0,0,0,0,0,0,0,0,0],"sum_hessian":[1.0829212E4,4.946241E3,5.8829707E3,4.2806E3,6.6564124E2,4.7153335E3,1.167637E3,1.2819318E3,2.9986682E3,3.5975092E2,3.058903E2,3.6405952E3,1.0747383E3,6.811518E2,4.864852E2,1.0269707E3,2.5496101E2,2.7588718E3,2.3979633E2,2.3273593E2,1.2701499E2,2.3625658E2,6.963373E1,3.6202725E2,3.2785679E3,1.4894388E2,9.257944E2,1.5516985E2,5.2598193E2,3.0889938E2,1.7758583E2,9.335885E2,9.338222E1,1.6511107E2,8.984994E1,1.0649993E1,2.748222E3,2.5336924E1,2.1445941E2,1.9566467E2,3.7071255E1,1.1925509E2,7.759902E0,2.1885963E2,1.7396936E1,4.4776962E1,2.4856764E1,5.3004654E1,3.090226E2,2.0099587E3,1.2686093E3,5.564495E1,9.329893E1,3.5563395E0,9.2223804E2,4.4346745E1,1.108231E2,1.2556919E2,4.0041275E2,1.8201591E2,1.2688348E2,5.026598E1,1.2731985E2,7.943249E2,1.3926358E2,5.222992E1,4.11523E1,1.1932802E2,4.578306E1,5.701282E1,3.2837116E1,8.665097E0,1.9848957E0,2.6935464E3,5.467549E1,8.988767E0,1.6348156E1,2.1190454E2,2.5548732E0,1.00018364E2,9.564632E1,2.4167807E1,1.2903449E1,3.536662E1,8.388847E1,5.8416348E0,1.9182673E0,4.9066532E1,1.697931E2,8.177238E0,9.219699E0,2.7138035E1,1.7638927E1,2.0806917E1,4.0498476E0,3.559582E1,1.7408833E1,7.609034E1,2.3293228E2,9.064618E1,1.9193125E3,2.507647E0,1.2661017E3,1.8876001E1,3.676895E1,8.7492546E1,5.80638E0,1.1096143E0,2.4467254E0,3.4213458E2,5.8010345E2,4.26642E1,1.6825417E0,9.086602E1,1.9957079E1,1.0831249E2,1.7256697E1,3.6167578E2,3.8736984E1,1.4558247E2,3.643344E1,1.2147777E2,5.405708E0,3.9099106E1,1.1166874E1,1.1442093E2,1.2898918E1],"tree_param":{"num_deleted":"0","num_feature":"29","num_nodes":"127","size_leaf_vector":"1"}},{"base_weights":[-4.812652E-3,-1.0833595E0,8.9999074E-1,-5.1448834E-1,-1.3687103E0,1.1761031E0,-4.055042E-1,-1.7034867E-1,-1.1744323E0,-1.407275E0,-1.2064056E0,1.2954743E0,7.367906E-1,1.8413892E-2,-8.4798586E-1,-6.2704605E-1,3.2604924E-1,-1.2506855E0,-4.4786635E-1,-7.116986E-2,-1.1915405E0,-4.8278153E-1,-1.3407884E0,9.138888E-1,1.3379056E0,1.977029E-2,8.583332E-1,-6.659526E-1,2.3441157E-1,-1.1754953E0,-6.4690137E-1,-8.5919833E-1,4.4106513E-1,5.9223306E-1,-3.5264257E-1,-1.2887983E0,-4.2064714E-1,5.1634127E-1,-9.3883985E-1,-1.3066012E0,-6.5288156E-1,-8.5459113E-1,-1.860494E-2,-1.348391E0,-0E0,1.1440525E0,6.254375E-1,1.4098833E0,1.2379886E0,2.0126088E-1,-7.8723234E-1,9.695922E-1,5.909656E-1,-1.9720551E-1,-9.39819E-1,1.1153258E0,1.5208006E-1,-5.4130256E-2,-1.2094445E0,-8.006122E-1,-1.7595842E-2,-4.696184E-2,1.0965919E-2,3.465619E-2,-3.3774097E-2,1.0625167E-2,4.8046283E-2,-3.8364675E-2,1.7369205E-2,-6.561198E-2,-3.473913E-2,2.3547633E-2,-4.6508875E-2,3.5278715E-2,-5.236419E-2,-1.5582189E-2,-6.891088E-2,-6.736137E-2,-3.3578366E-2,3.5036337E-2,-6.0179558E-2,-1.9101204E-2,-6.221159E-2,3.575767E-2,-2.6167814E-2,-6.7789085E-2,-1.8385831E-2,-4.1360945E-2,3.870363E-2,3.5443265E-2,6.280841E-2,-1.7489037E-2,3.542941E-2,5.4095205E-2,7.082425E-2,4.0459804E-2,6.325413E-2,2.4375927E-2,-1.2297333E-2,-6.6296235E-2,3.2894526E-2,6.477864E-3,5.0317448E-2,3.3542212E-2,-2.8930402E-3,1.565123E-2,-4.7965012E-2,-5.4183908E-2,-6.7138285E-3,-1.0377263E-2,5.9971254E-2,1.6177943E-2,-9.15816E-3,-5.83103E-2,4.5881297E-2,-6.2066812E-2,-1.7264944E-3,-7.428117E-3,-4.501187E-2,1.61103E-2,-3.993367E-2],"categories":[],"categories_nodes":[],"categories_segments":[],"categories_sizes":[],"default_left":[0,0,0,0,0,0,0,0,0,0,0,1,1,1,0,0,0,0,0,0,0,1,0,0,0,0,0,0,0,0,0,0,0,0,0,0,0,0,0,0,0,0,0,0,0,0,0,0,0,0,0,0,0,0,0,0,0,0,1,0,0,0,0,0,0,0,0,0,0,0,0,0,0,0,0,0,0,0,0,0,0,0,0,0,0,0,0,0,0,0,0,0,0,0,0,0,0,0,0,0,0,0,0,0,0,0,0,0,0,0,0,0,0,0,0,0,0,0,0,0,0],"id":10,"left_children":[1,3,5,7,9,11,13,15,17,19,21,23,25,27,29,31,33,35,37,-1,39,41,43,45,47,49,51,53,55,57,59,61,63,65,67,69,71,73,75,77,79,81,83,85,87,89,91,93,95,97,99,101,103,105,107,109,111,113,115,117,119,-1,-1,-1,-1,-1,-1,-1,-1,-1,-1,-1,-1,-1,-1,-1,-1,-1,-1,-1,-1,-1,-1,-1,-1,-1,-1,-1,-1,-1,-1,-1,-1,-1,-1,-1,-1,-1,-1,-1,-1,-1,-1,-1,-1,-1,-1,-1,-1,-1,-1,-1,-1,-1,-1,-1,-1,-1,-1,-1,-1],"loss_changes":[1.0331724E4,7.831338E2,2.0758296E3,3.6648358E2,1.8169434E1,2.4806885E2,1.8875565E2,2.4118268E2,2.9924622E1,7.057129E0,5.9936523E1,5.9035156E1,8.8606995E1,7.617009E1,3.1475037E1,1.3779297E2,9.233773E1,1.5106567E1,2.6202393E1,0E0,1.0528412E1,1.707786E1,5.444763E0,2.4150665E1,2.2149414E1,2.1876646E1,2.5158447E1,1.5565784E1,2.8129667E1,6.883148E0,2.9639267E1,3.9598267E1,2.8471731E1,5.1015778E1,4.214984E1,5.536743E0,1.11841755E1,6.2898374E0,9.421597E0,2.8345947E0,2.700644E1,9.513832E0,1.7176304E1,3.1227417E0,3.1498115E0,9.081268E0,1.405323E1,2.428955E0,1.5213135E1,1.5798303E1,2.2270433E1,1.8674438E1,1.34999695E1,1.8631218E1,8.726128E0,4.0459747E0,2.0751347E1,8.221424E0,6.583496E0,1.5800522E1,1.6626396E1,0E0,0E0,0E0,0E0,0E0,0E0,0E0,0E0,0E0,0E0,0E0,0E0,0E0,0E0,0E0,0E0,0E0,0E0,0E0,0E0,0E0,0E0,0E0,0E0,0E0,0E0,0E0,0E0,0E0,0E0,0E0,0E0,0E0,0E0,0E0,0E0,0E0,0E0,0E0,0E0,0E0,0E0,0E0,0E0,0E0,0E0,0E0,0E0,0E0,0E0,0E0,0E0,0E0,0E0,0E0,0E0,0E0,0E0,0E0,0E0],"parents":[2147483647,0,0,1,1,2,2,3,3,4,4,5,5,6,6,7,7,8,8,9,9,10,10,11,11,12,12,13,13,14,14,15,15,16,16,17,17,18,18,20,20,21,21,22,22,23,23,24,24,25,25,26,26,27,27,28,28,29,29,30,30,31,31,32,32,33,33,34,34,35,35,36,36,37,37,38,38,39,39,40,40,41,41,42,42,43,43,44,44,45,45,46,46,47,47,48,48,49,49,50,50,51,51,52,52,53,53,54,54,55,55,56,56,57,57,58,58,59,59,60,60],"right_children":[2,4,6,8,10,12,14,16,18,20,22,24,26,28,30,32,34,36,38,-1,40,42,44,46,48,50,52,54,56,58,60,62,64,66,68,70,72,74,76,78,80,82,84,86,88,90,92,94,96,98,100,102,104,106,108,110,112,114,116,118,120,-1,-1,-1,-1,-1,-1,-1,-1,-1,-1,-1,-1,-1,-1,-1,-1,-1,-1,-1,-1,-1,-1,-1,-1,-1,-1,-1,-1,-1,-1,-1,-1,-1,-1,-1,-1,-1,-1,-1,-1,-1,-1,-1,-1,-1,-1,-1,-1,-1,-1,-1,-1,-1,-1,-1,-1,-1,-1,-1,-1],"split_conditions":[2E1,3E0,2.2E0,2E-1,6.8E0,-1E-1,4E0,5.6E0,6.51E1,1.5E1,1E-1,2.7E1,2.8E1,3.5E1,3.8E1,1.5E1,-2.3333333E-1,1.8E1,1E0,-7.116986E-2,1.7E0,6E0,4.06E1,-3.2E0,-3.4E0,8.8805735E-1,5.7E0,6.51E1,4.3166668E1,2.72E1,7.266075E-1,2.04E1,2.1033333E2,1.26E1,2.2E1,3.1E1,1.9E0,2.66E2,8.52E1,9.986668E-1,-2.3E0,-3.2126966E-1,7.89E1,1.9E1,1.61E1,1.3E1,3.09017E-1,4E0,2.1E1,1.2E0,9.3E0,2.2E1,4.5E0,7.1165663E-1,9.9274874E-1,3.872228E-2,3.3E0,0E0,2.98E1,-4.7E0,6.58E1,-4.696184E-2,1.0965919E-2,3.465619E-2,-3.3774097E-2,1.0625167E-2,4.8046283E-2,-3.8364675E-2,1.7369205E-2,-6.561198E-2,-3.473913E-2,2.3547633E-2,-4.6508875E-2,3.5278715E-2,-5.236419E-2,-1.5582189E-2,-6.891088E-2,-6.736137E-2,-3.3578366E-2,3.5036337E-2,-6.0179558E-2,-1.9101204E-2,-6.221159E-2,3.575767E-2,-2.6167814E-2,-6.7789085E-2,-1.8385831E-2,-4.1360945E-2,3.870363E-2,3.5443265E-2,6.280841E-2,-1.7489037E-2,3.542941E-2,5.4095205E-2,7.082425E-2,4.0459804E-2,6.325413E-2,2.4375927E-2,-1.2297333E-2,-6.6296235E-2,3.2894526E-2,6.477864E-3,5.0317448E-2,3.3542212E-2,-2.8930402E-3,1.565123E-2,-4.7965012E-2,-5.4183908E-2,-6.7138285E-3,-1.0377263E-2,5.9971254E-2,1.6177943E-2,-9.15816E-3,-5.83103E-2,4.5881297E-2,-6.2066812E-2,-1.7264944E-3,-7.428117E-3,-4.501187E-2,1.61103E-2,-3.993367E-2],"split_indices":[17,23,1,1,24,1,1,24,12,17,1,17,17,17,17,17,6,17,1,0,24,18,21,1,1,26,24,2,19,19,27,11,22,24,24,18,10,5,2,27,1,26,19,17,24,18,27,18,18,1,11,18,10,26,27,27,1,14,21,9,2,0,0,0,0,0,0,0,0,0,0,0,0,0,0,0,0,0,0,0,0,0,0,0,0,0,0,0,0,0,0,0,0,0,0,0,0,0,0,0,0,0,0,0,0,0,0,0,0,0,0,0,0,0,0,0,0,0,0,0,0],"split_type":[0,0,0,0,0,0,0,0,0,0,0,0,0,0,0,0,0,0,0,0,0,0,0,0,0,0,0,0,0,0,0,0,0,0,0,0,0,0,0,0,0,0,0,0,0,0,0,0,0,0,0,0,0,0,0,0,0,0,0,0,0,0,0,0,0,0,0,0,0,0,0,0,0,0,0,0,0,0,0,0,0,0,0,0,0,0,0,0,0,0,0,0,0,0,0,0,0,0,0,0,0,0,0,0,0,0,0,0,0,0,0,0,0,0,0,0,0,0,0,0,0],"sum_hessian":[1.0585145E4,4.828898E3,5.7562466E3,1.6141357E3,3.2147625E3,4.751483E3,1.00476355E3,1.0618333E3,5.523025E2,2.5908694E3,6.23893E2,3.734545E3,1.01693787E3,5.135199E2,4.9124365E2,5.5299945E2,5.088338E2,4.990664E2,5.323608E1,2.405072E3,1.8579733E2,9.855123E1,5.253418E2,3.762072E2,3.358338E3,1.476843E2,8.692536E2,1.2258279E2,3.909371E2,1.8484335E2,3.064003E2,4.545031E2,9.849632E1,3.65686E2,1.431478E2,4.7651315E2,2.2553272E1,1.7875532E1,3.536055E1,1.5176756E2,3.4029762E1,5.4133385E1,4.4417847E1,5.2241785E2,2.9239576E0,2.0740215E2,1.6880507E2,1.943897E3,1.4144408E3,1.2128293E2,2.6401361E1,6.1170557E2,2.57548E2,4.5975967E1,7.660682E1,3.2238346E1,3.5869876E2,5.5944724E0,1.7924889E2,2.4590558E2,6.0494728E1,4.2331042E2,3.1192669E1,8.0738525E1,1.77578E1,1.8105676E2,1.8462926E2,8.992735E1,5.3220444E1,4.5709766E2,1.9415474E1,8.15781E0,1.4395462E1,1.6492311E1,1.3832209E0,1.5364768E1,1.999578E1,1.4143999E2,1.032758E1,9.709776E0,2.4319986E1,2.5474413E1,2.8658972E1,1.7851751E1,2.6566095E1,5.1802936E2,4.3884535E0,1.343442E0,1.5805156E0,4.4169315E1,1.6323283E2,1.2915746E1,1.5588933E2,4.1908047E1,1.9019889E3,8.611631E1,1.3283245E3,7.402987E1,4.7253063E1,1.9342735E1,7.058627E0,2.5947563E1,5.8575806E2,2.2942331E2,2.8124674E1,2.7812956E1,1.8163013E1,6.460059E1,1.2006228E1,1.7681795E0,3.0470165E1,2.3753264E2,1.2116613E2,2.5635529E0,3.0309196E0,1.7437405E2,4.8748302E0,3.3054935E1,2.1285063E2,4.2475533E1,1.8019197E1],"tree_param":{"num_deleted":"0","num_feature":"29","num_nodes":"121","size_leaf_vector":"1"}},{"base_weights":[8.850255E-4,-1.2258853E0,9.800454E-1,-1.3656175E0,-9.538368E-1,1.1657333E0,1.625827E-1,-1.3851277E0,-8.400542E-1,-1.19678E0,-3.5951734E-1,1.2860006E0,8.974225E-1,7.011547E-1,-1.4903685E-1,-1.3878224E0,-8.090969E-1,-1.0834868E0,-5.3707786E-2,-1.2899412E0,-8.6024004E-1,5.4019418E-2,-5.973913E-1,7.810016E-1,1.3090822E0,3.2850012E-1,9.667046E-1,1.1213621E0,2.178764E-1,5.7750512E-2,-6.3650864E-1,-5.637127E-1,-1.3886819E0,8.068554E-1,-7.12285E-2,-1.243321E0,-3.6992466E-1,8.049327E-1,-6.8065065E-1,-3.9674085E-1,-1.3106365E0,7.289755E-2,-9.826192E-1,-2.9053208E-1,6.868494E-1,-3.9477628E-1,-1.0774603E0,-1.2639462E-2,9.1199154E-1,-8.2271004E-1,1.3114605E0,-1.5826991E-1,5.924484E-1,1.1625196E0,8.431993E-1,1.1503901E-1,1.163561E0,-3.160669E-1,4.316277E-1,-5.1521164E-1,1.9742534E-1,-1.1562926E0,-4.2194062E-1,3.162921E-2,-5.3418107E-2,-6.947433E-2,-2.6653487E-2,6.1201114E-2,-1.5136908E-2,-6.301759E-2,-1.9029612E-3,1.812071E-2,-5.9130933E-2,5.706E-2,-4.7323532E-2,-4.6985652E-2,-0E0,-5.1609028E-2,1.1675408E-2,-6.593575E-2,-2.1881921E-2,-3.2744117E-2,3.93564E-2,-2.7085558E-2,-6.0370546E-2,-3.5590734E-2,3.605137E-2,6.92623E-4,6.1285384E-2,-8.417547E-3,-5.211516E-2,-5.8092434E-2,-7.4676382E-3,2.715352E-2,-3.5617508E-2,2.4342058E-2,5.4957606E-2,1.7954728E-2,-6.896112E-2,6.8297304E-2,6.1667927E-2,9.830769E-3,-3.8716402E-2,-3.1146739E-2,3.534789E-2,6.2208902E-2,4.169264E-2,-5.767219E-2,4.2763885E-2,-3.31878E-2,5.159967E-2,3.4107633E-2,6.1532892E-2,-6.510763E-2,-4.1656266E-4,3.1186646E-2,-4.092619E-3,-2.0134558E-3,-4.962794E-2,-1.83657E-2,1.7985566E-2,3.2698777E-2,-6.0068984E-2,-9.876659E-3,-4.400066E-2],"categories":[],"categories_nodes":[],"categories_segments":[],"categories_sizes":[],"default_left":[0,1,0,0,0,0,0,1,0,0,0,0,0,0,0,0,0,0,0,0,0,0,0,0,0,0,1,0,0,0,0,0,0,0,0,0,0,0,0,0,0,0,0,0,0,0,0,0,0,0,0,0,0,0,0,0,0,0,0,0,0,0,0,0,0,0,0,0,0,0,0,0,0,0,0,0,0,0,0,0,0,0,0,0,0,0,0,0,0,0,0,0,0,0,0,0,0,0,0,0,0,0,0,0,0,0,0,0,0,0,0,0,0,0,0,0,0,0,0,0,0,0,0,0,0],"id":11,"left_children":[1,3,5,7,9,11,13,15,17,19,21,23,25,27,29,31,33,35,37,39,41,43,45,47,49,51,53,55,57,59,61,63,65,67,-1,69,71,73,75,77,79,81,83,85,87,89,91,93,95,97,99,101,103,105,107,109,111,113,115,117,119,121,123,-1,-1,-1,-1,-1,-1,-1,-1,-1,-1,-1,-1,-1,-1,-1,-1,-1,-1,-1,-1,-1,-1,-1,-1,-1,-1,-1,-1,-1,-1,-1,-1,-1,-1,-1,-1,-1,-1,-1,-1,-1,-1,-1,-1,-1,-1,-1,-1,-1,-1,-1,-1,-1,-1,-1,-1,-1,-1,-1,-1,-1,-1],"loss_changes":[1.2423243E4,1.7297461E2,8.7274023E2,2.9686035E1,2.2484985E2,1.4986475E2,1.7905301E2,3.1904297E0,2.1112534E1,3.3405884E1,4.4804802E1,3.6459473E1,5.6869507E1,7.902162E1,6.823124E1,1.0795898E0,1.7291904E1,9.045395E0,1.53037E1,1.5305542E1,2.7958023E1,3.660133E1,2.7521423E1,1.507193E1,1.6797852E1,2.0633928E1,3.0152588E1,8.604614E0,2.1056425E1,3.811388E1,2.1833824E1,3.6358137E0,1.0649414E0,2.8017325E0,0E0,1.2325516E0,1.0657518E1,8.148315E0,2.9163551E0,8.786985E0,5.2077637E0,1.5632375E1,2.0514206E1,4.678284E1,2.1323912E1,2.9734982E1,6.3524246E0,8.677733E0,9.1512375E0,3.2358859E0,1.1194336E1,1.2616345E1,1.4892727E1,1.2124512E1,2.021228E1,7.583048E0,5.435211E0,1.5885288E1,1.3064941E1,2.1011286E1,3.523951E1,5.5891876E0,1.4559521E1,0E0,0E0,0E0,0E0,0E0,0E0,0E0,0E0,0E0,0E0,0E0,0E0,0E0,0E0,0E0,0E0,0E0,0E0,0E0,0E0,0E0,0E0,0E0,0E0,0E0,0E0,0E0,0E0,0E0,0E0,0E0,0E0,0E0,0E0,0E0,0E0,0E0,0E0,0E0,0E0,0E0,0E0,0E0,0E0,0E0,0E0,0E0,0E0,0E0,0E0,0E0,0E0,0E0,0E0,0E0,0E0,0E0,0E0,0E0,0E0,0E0,0E0],"parents":[2147483647,0,0,1,1,2,2,3,3,4,4,5,5,6,6,7,7,8,8,9,9,10,10,11,11,12,12,13,13,14,14,15,15,16,16,17,17,18,18,19,19,20,20,21,21,22,22,23,23,24,24,25,25,26,26,27,27,28,28,29,29,30,30,31,31,32,32,33,33,35,35,36,36,37,37,38,38,39,39,40,40,41,41,42,42,43,43,44,44,45,45,46,46,47,47,48,48,49,49,50,50,51,51,52,52,53,53,54,54,55,55,56,56,57,57,58,58,59,59,60,60,61,61,62,62],"right_children":[2,4,6,8,10,12,14,16,18,20,22,24,26,28,30,32,34,36,38,40,42,44,46,48,50,52,54,56,58,60,62,64,66,68,-1,70,72,74,76,78,80,82,84,86,88,90,92,94,96,98,100,102,104,106,108,110,112,114,116,118,120,122,124,-1,-1,-1,-1,-1,-1,-1,-1,-1,-1,-1,-1,-1,-1,-1,-1,-1,-1,-1,-1,-1,-1,-1,-1,-1,-1,-1,-1,-1,-1,-1,-1,-1,-1,-1,-1,-1,-1,-1,-1,-1,-1,-1,-1,-1,-1,-1,-1,-1,-1,-1,-1,-1,-1,-1,-1,-1,-1,-1,-1,-1,-1],"split_conditions":[2E1,3.3E0,2.9E0,1.8E1,8E0,2E-1,-4E-1,2.9E1,1E0,2.16E1,3E-1,2.3E1,2.5E1,2.4285715E0,5.3E0,-1.1828571E1,-2.9E0,9.8522013E-1,-1.9E0,-2.2E0,2.2E0,1.5E1,7.4E1,7.146734E-1,-4.5973274E-1,2.1E1,-3E-1,3E0,-4.7321387E-2,7.1E0,-3.0120306E-2,3.2E1,2.5E2,1.98E2,-7.12285E-2,2.93E1,1.3E0,5.9E0,2.7666667E0,8.2E0,1.9E1,1E-1,-3.3E0,1.33E1,-1E-1,1.9E0,1.974E3,1.11E2,1.1E1,8.4E0,-2.2E0,1.14E2,2.0931464E-1,1.3428571E0,-3.975428E-1,2.95E1,-1.4E1,1.03E1,4.614286E0,3.96E2,3.8E1,-9E-1,5.15E2,3.162921E-2,-5.3418107E-2,-6.947433E-2,-2.6653487E-2,6.1201114E-2,-1.5136908E-2,-6.301759E-2,-1.9029612E-3,1.812071E-2,-5.9130933E-2,5.706E-2,-4.7323532E-2,-4.6985652E-2,-0E0,-5.1609028E-2,1.1675408E-2,-6.593575E-2,-2.1881921E-2,-3.2744117E-2,3.93564E-2,-2.7085558E-2,-6.0370546E-2,-3.5590734E-2,3.605137E-2,6.92623E-4,6.1285384E-2,-8.417547E-3,-5.211516E-2,-5.8092434E-2,-7.4676382E-3,2.715352E-2,-3.5617508E-2,2.4342058E-2,5.4957606E-2,1.7954728E-2,-6.896112E-2,6.8297304E-2,6.1667927E-2,9.830769E-3,-3.8716402E-2,-3.1146739E-2,3.534789E-2,6.2208902E-2,4.169264E-2,-5.767219E-2,4.2763885E-2,-3.31878E-2,5.159967E-2,3.4107633E-2,6.1532892E-2,-6.510763E-2,-4.1656266E-4,3.1186646E-2,-4.092619E-3,-2.0134558E-3,-4.962794E-2,-1.83657E-2,1.7985566E-2,3.2698777E-2,-6.0068984E-2,-9.876659E-3,-4.400066E-2],"split_indices":[0,24,10,0,0,10,8,16,24,24,10,0,0,7,10,7,10,27,10,10,10,16,5,27,27,17,8,18,27,4,27,5,17,5,0,21,10,11,20,11,16,8,8,24,8,8,25,5,18,11,10,5,27,7,27,11,15,4,7,5,17,7,5,0,0,0,0,0,0,0,0,0,0,0,0,0,0,0,0,0,0,0,0,0,0,0,0,0,0,0,0,0,0,0,0,0,0,0,0,0,0,0,0,0,0,0,0,0,0,0,0,0,0,0,0,0,0,0,0,0,0,0,0,0,0],"split_type":[0,0,0,0,0,0,0,0,0,0,0,0,0,0,0,0,0,0,0,0,0,0,0,0,0,0,0,0,0,0,0,0,0,0,0,0,0,0,0,0,0,0,0,0,0,0,0,0,0,0,0,0,0,0,0,0,0,0,0,0,0,0,0,0,0,0,0,0,0,0,0,0,0,0,0,0,0,0,0,0,0,0,0,0,0,0,0,0,0,0,0,0,0,0,0,0,0,0,0,0,0,0,0,0,0,0,0,0,0,0,0,0,0,0,0,0,0,0,0,0,0,0,0,0,0],"sum_hessian":[1.0340338E4,4.589674E3,5.7506646E3,3.0293318E3,1.560342E3,4.685742E3,1.0649222E3,2.9191409E3,1.10190994E2,1.1067485E3,4.535935E2,3.2326E3,1.453142E3,3.8998395E2,6.7493835E2,2.9039724E3,1.51684265E1,8.375695E1,2.6434038E1,8.643488E2,2.423998E2,1.6576631E2,2.878272E2,1.4300352E2,3.0895967E3,1.5852992E2,1.294612E3,2.0778714E2,1.8219681E2,4.7438065E2,2.0055768E2,3.8308032E0,2.9001416E3,4.053183E0,1.1115243E1,6.770814E1,1.6048819E1,1.09685135E1,1.5465525E1,2.0139595E1,8.4420917E2,2.8056564E1,2.1434323E2,1.0757743E2,5.8188877E1,2.038304E2,8.39968E1,2.0278759E1,1.2272476E2,3.0119302E0,3.0865847E3,5.574578E1,1.0278414E2,4.971573E2,7.974547E2,8.607963E0,1.9917918E2,5.181592E1,1.3038089E2,9.2309975E1,3.8207068E2,5.7181755E1,1.4337592E2,1.0025465E0,2.8282566E0,2.896676E3,3.4655952E0,2.9362543E0,1.1169287E0,6.663783E1,1.0703026E0,8.668462E0,7.3803563E0,9.541972E0,1.4265411E0,1.094096E1,4.5245643E0,9.789949E0,1.0349646E1,8.358495E2,8.359701E0,1.38682785E1,1.4188286E1,7.368049E1,1.4066275E2,7.622662E1,3.1350803E1,2.6412617E1,3.177626E1,1.5206958E2,5.1760822E1,7.666631E1,7.3304925E0,1.1347516E1,8.931243E0,3.8776443E1,8.394832E1,1.0202938E0,1.9916363E0,1.8077158E3,1.2788689E3,3.5699387E1,2.0046394E1,8.392653E0,9.439149E1,3.957436E2,1.01413704E2,4.1770573E0,7.9327765E2,4.7449865E0,3.8629763E0,2.5913216E1,1.7326596E2,1.1478548E1,4.0337376E1,9.486838E1,3.551251E1,4.6920094E1,4.5389877E1,8.486594E1,2.9720474E2,1.0075E0,5.6174255E1,9.733937E1,4.6036545E1],"tree_param":{"num_deleted":"0","num_feature":"29","num_nodes":"125","size_leaf_vector":"1"}},{"base_weights":[-3.6152194E-3,-1.1998404E0,9.4702417E-1,-1.3041363E0,-8.237503E-1,1.1662213E0,-8.130335E-2,-1.3353983E0,-9.003934E-1,-1.8827587E-1,-1.216308E0,1.2662969E0,8.481292E-1,2.4451306E-1,-6.346551E-1,-1.3633089E0,-1.1967314E0,-4.5115516E-1,-1.1351091E0,-5.5983216E-1,3.1280464E-1,-1.263442E0,-7.6161766E-1,7.109999E-1,1.2941709E0,1.6813132E-1,9.1189116E-1,4.669757E-1,-2.8362734E-2,-4.3727055E-1,-1.0876324E0,-1.3665042E0,-6.5997607E-1,-1.3088427E0,-5.746704E-1,-3.4684725E-2,-1.2037413E0,-1.1546857E0,1.800804E-2,-9.2439604E-1,1.3071665E-1,5.871691E-1,-1.1933316E-1,-6.9474244E-1,-1.279636E0,1.2517551E0,-9.035737E-1,1.7524806E-1,9.3755496E-1,1.3450432E0,1.1939915E0,-6.6386E-1,3.8114583E-1,9.481619E-1,2.0754077E-1,-2.9754901E-2,5.748948E-1,5.5451054E-2,-7.513404E-1,-1.1972735E0,-3.166785E-1,-1.138704E0,9.973671E-2,-6.835073E-2,-2.7250916E-2,3.6539786E-2,-5.5315014E-2,2.1849183E-2,-6.575201E-2,1.0564988E-3,-6.1419647E-2,-7.4035965E-2,1.0311036E-2,-6.80118E-2,-1.4142496E-2,-5.8470476E-2,7.6274904E-3,-1.7128967E-2,-5.3397782E-2,1.9894173E-2,-3.8789388E-2,3.916272E-2,-1.4001327E-2,-4.361294E-2,6.649499E-3,-4.3696957E-3,-5.9029758E-2,-4.922744E-2,-6.557187E-2,1.2161199E-2,8.241172E-2,-5.4161973E-2,-2.1310417E-2,4.054257E-2,-2.2945931E-2,9.852921E-3,5.311879E-2,5.3561646E-2,6.7586526E-2,4.1895863E-2,6.1168082E-2,-5.990635E-3,-6.579686E-2,-5.7097405E-2,2.3855714E-2,-1.6756643E-2,4.812332E-2,-1.9501047E-2,3.128928E-2,-3.0740375E-2,1.2576871E-2,-1.2845809E-2,3.2686785E-2,-4.4196464E-2,6.0675014E-3,-4.9736064E-2,1.3606473E-2,-6.331316E-2,2.5208285E-3,-4.3420712E-3,-3.7483882E-2,2.8945437E-2,-5.8600258E-2,7.647901E-2,-3.9965324E-2],"categories":[],"categories_nodes":[],"categories_segments":[],"categories_sizes":[],"default_left":[0,1,0,0,0,0,0,1,0,0,0,0,0,0,0,1,0,0,0,0,0,0,0,0,0,0,0,0,0,0,0,1,0,0,0,0,0,1,0,0,0,0,0,0,0,0,0,0,0,0,0,0,0,0,0,0,0,0,0,0,0,0,0,0,0,0,0,0,0,0,0,0,0,0,0,0,0,0,0,0,0,0,0,0,0,0,0,0,0,0,0,0,0,0,0,0,0,0,0,0,0,0,0,0,0,0,0,0,0,0,0,0,0,0,0,0,0,0,0,0,0,0,0,0,0],"id":12,"left_children":[1,3,5,7,9,11,13,15,17,19,21,23,25,27,29,31,33,35,37,39,41,43,45,47,49,51,53,55,57,59,61,63,65,67,69,71,73,75,-1,77,79,81,83,85,87,89,91,93,95,97,99,101,103,105,107,109,111,113,115,117,119,121,123,-1,-1,-1,-1,-1,-1,-1,-1,-1,-1,-1,-1,-1,-1,-1,-1,-1,-1,-1,-1,-1,-1,-1,-1,-1,-1,-1,-1,-1,-1,-1,-1,-1,-1,-1,-1,-1,-1,-1,-1,-1,-1,-1,-1,-1,-1,-1,-1,-1,-1,-1,-1,-1,-1,-1,-1,-1,-1,-1,-1,-1,-1],"loss_changes":[1.1558957E4,1.7526172E2,1.2768184E3,4.3026367E1,2.4413104E2,1.4733301E2,1.7976126E2,1.0754395E1,2.6364914E1,7.011806E1,1.181366E1,5.381299E1,4.8323853E1,3.8148327E1,3.2409164E1,4.9887695E0,3.784082E1,2.7979107E1,5.4014893E0,5.460685E1,1.9137642E1,3.9509277E0,1.8129364E1,2.0604515E1,1.5355957E1,1.7491089E1,2.5851562E1,1.8615913E1,1.723262E1,2.3223644E1,6.9677887E0,1.9482422E-1,9.746003E0,5.7504883E0,3.396803E1,2.0958643E1,4.0444717E0,3.4702148E0,0E0,1.1325394E1,1.854481E1,1.7008324E1,1.2156842E1,4.9348383E0,3.4572754E0,1.1285634E0,4.215828E0,2.1563593E1,1.0806122E1,2.3962402E0,1.0766724E1,6.839484E0,1.1922959E1,1.8256897E1,1.315655E1,1.0481273E1,1.88591E1,1.5755056E1,7.70257E0,3.199894E0,2.2259249E1,6.851639E0,8.274901E0,0E0,0E0,0E0,0E0,0E0,0E0,0E0,0E0,0E0,0E0,0E0,0E0,0E0,0E0,0E0,0E0,0E0,0E0,0E0,0E0,0E0,0E0,0E0,0E0,0E0,0E0,0E0,0E0,0E0,0E0,0E0,0E0,0E0,0E0,0E0,0E0,0E0,0E0,0E0,0E0,0E0,0E0,0E0,0E0,0E0,0E0,0E0,0E0,0E0,0E0,0E0,0E0,0E0,0E0,0E0,0E0,0E0,0E0,0E0,0E0,0E0,0E0],"parents":[2147483647,0,0,1,1,2,2,3,3,4,4,5,5,6,6,7,7,8,8,9,9,10,10,11,11,12,12,13,13,14,14,15,15,16,16,17,17,18,18,19,19,20,20,21,21,22,22,23,23,24,24,25,25,26,26,27,27,28,28,29,29,30,30,31,31,32,32,33,33,34,34,35,35,36,36,37,37,39,39,40,40,41,41,42,42,43,43,44,44,45,45,46,46,47,47,48,48,49,49,50,50,51,51,52,52,53,53,54,54,55,55,56,56,57,57,58,58,59,59,60,60,61,61,62,62],"right_children":[2,4,6,8,10,12,14,16,18,20,22,24,26,28,30,32,34,36,38,40,42,44,46,48,50,52,54,56,58,60,62,64,66,68,70,72,74,76,-1,78,80,82,84,86,88,90,92,94,96,98,100,102,104,106,108,110,112,114,116,118,120,122,124,-1,-1,-1,-1,-1,-1,-1,-1,-1,-1,-1,-1,-1,-1,-1,-1,-1,-1,-1,-1,-1,-1,-1,-1,-1,-1,-1,-1,-1,-1,-1,-1,-1,-1,-1,-1,-1,-1,-1,-1,-1,-1,-1,-1,-1,-1,-1,-1,-1,-1,-1,-1,-1,-1,-1,-1,-1,-1,-1,-1,-1,-1],"split_conditions":[2E1,8.3E0,1.8E0,1.6E1,6E-1,-7E-1,4E0,3E0,6.6E1,5E0,1.2E1,2.3E1,2.1E1,7.126667E1,5.5E2,2.8E1,1E1,-5E-1,7.3E0,2.25E1,8.886667E1,3.3333335E-2,6.1366665E1,1.5E1,-3.1E0,2.2E1,9.67E1,3.2E1,3.6E0,6.5E0,9.999167E-1,3.2E2,-3.4E0,-8.5E0,1E-1,1.5E1,1.9E1,2.75E1,1.800804E-2,-1.7666667E0,4E0,7.9E1,1.17E1,8.6166664E1,6.5566666E1,1.16E1,2.5E1,7E0,7E0,2.5E1,7E0,2E-1,-3.1333334E0,-3.975428E-1,5.1E1,3.5769823E-1,-6.333333E-1,-2.0089056E-1,8.4E1,9.750645E-1,6.82E1,-3.5142858E0,1.1E0,-6.835073E-2,-2.7250916E-2,3.6539786E-2,-5.5315014E-2,2.1849183E-2,-6.575201E-2,1.0564988E-3,-6.1419647E-2,-7.4035965E-2,1.0311036E-2,-6.80118E-2,-1.4142496E-2,-5.8470476E-2,7.6274904E-3,-1.7128967E-2,-5.3397782E-2,1.9894173E-2,-3.8789388E-2,3.916272E-2,-1.4001327E-2,-4.361294E-2,6.649499E-3,-4.3696957E-3,-5.9029758E-2,-4.922744E-2,-6.557187E-2,1.2161199E-2,8.241172E-2,-5.4161973E-2,-2.1310417E-2,4.054257E-2,-2.2945931E-2,9.852921E-3,5.311879E-2,5.3561646E-2,6.7586526E-2,4.1895863E-2,6.1168082E-2,-5.990635E-3,-6.579686E-2,-5.7097405E-2,2.3855714E-2,-1.6756643E-2,4.812332E-2,-1.9501047E-2,3.128928E-2,-3.0740375E-2,1.2576871E-2,-1.2845809E-2,3.2686785E-2,-4.4196464E-2,6.0675014E-3,-4.9736064E-2,1.3606473E-2,-6.331316E-2,2.5208285E-3,-4.3420712E-3,-3.7483882E-2,2.8945437E-2,-5.8600258E-2,7.647901E-2,-3.9965324E-2],"split_indices":[0,24,1,0,1,1,1,24,5,16,0,0,17,19,5,16,16,1,24,24,19,6,19,17,1,0,2,0,1,4,26,18,6,6,1,16,0,4,0,6,5,5,24,19,19,24,18,5,18,0,18,1,6,27,17,27,6,27,16,27,2,7,8,0,0,0,0,0,0,0,0,0,0,0,0,0,0,0,0,0,0,0,0,0,0,0,0,0,0,0,0,0,0,0,0,0,0,0,0,0,0,0,0,0,0,0,0,0,0,0,0,0,0,0,0,0,0,0,0,0,0,0,0,0,0],"split_type":[0,0,0,0,0,0,0,0,0,0,0,0,0,0,0,0,0,0,0,0,0,0,0,0,0,0,0,0,0,0,0,0,0,0,0,0,0,0,0,0,0,0,0,0,0,0,0,0,0,0,0,0,0,0,0,0,0,0,0,0,0,0,0,0,0,0,0,0,0,0,0,0,0,0,0,0,0,0,0,0,0,0,0,0,0,0,0,0,0,0,0,0,0,0,0,0,0,0,0,0,0,0,0,0,0,0,0,0,0,0,0,0,0,0,0,0,0,0,0,0,0,0,0,0,0],"sum_hessian":[1.0162569E4,4.499953E3,5.6626167E3,3.5208352E3,9.791178E2,4.667633E3,9.9498413E2,3.265435E3,2.5540009E2,3.7454187E2,6.045759E2,3.548071E3,1.1195615E3,6.264843E2,3.6849982E2,2.7103503E3,5.5508466E2,8.8795845E1,1.6660423E2,2.1511458E2,1.594273E2,5.4598E2,5.8595917E1,1.7102646E2,3.3770447E3,9.6425385E1,1.0231362E3,3.4493246E2,2.8155182E2,2.581829E2,1.1031693E2,2.6970127E3,1.3337798E1,4.692493E2,8.583538E1,5.7921745E1,3.0874102E1,1.6474202E2,1.8622066E0,1.4066106E2,7.445352E1,9.7437096E1,6.1990204E1,1.6502981E1,5.29477E2,3.2979856E0,5.529793E1,5.1486767E1,1.19539696E2,2.2307947E3,1.14625E3,1.9128277E1,7.7297104E1,9.7256555E2,5.0570656E1,6.1528107E1,2.8340436E2,2.5300616E2,2.8545666E1,3.4020313E1,2.2416258E2,1.0588767E2,4.429265E0,2.6945525E3,2.4602425E0,3.031148E0,1.030665E1,1.3569447E0,4.6789236E2,4.5333397E1,4.0501984E1,7.595914E0,5.0325832E1,2.588891E1,4.9851923E0,1.6308705E2,1.6549788E0,2.8646355E1,1.12014694E2,5.802397E1,1.6429548E1,7.96412E1,1.7795902E1,1.5042673E1,4.6947533E1,7.9502883E0,8.552692E0,5.4925163E1,4.7455185E2,1.4571322E0,1.8408532E0,3.910232E1,1.619561E1,2.5653862E1,2.5832903E1,1.773097E1,1.0180872E2,5.7383183E1,2.1734114E3,8.985162E1,1.0563983E3,1.1156867E1,7.971409E0,3.87391E0,7.3423195E1,1.0397051E1,9.621685E2,2.0751135E1,